{"learner":{"attributes":{"scikit_learn":"{\"_estimator_type\": \"classifier\"}"},"feature_names":["age","default","balance","housing","loan","day","duration","campaign","job_admin","job_blue-collar","job_entrepreneur","job_housemaid","job_management","job_retired","job_self-employed","job_services","job_student","job_technician","job_unemployed","job_unknown","marital_divorced","marital_married","marital_single","education_primary","education_secondary","education_tertiary","education_unknown","contact_cellular","contact_telephone","contact_unknown","month_apr","month_aug","month_dec","month_feb","month_jan","month_jul","month_jun","month_mar","month_may","month_nov","month_oct"],"feature_types":["float","float","float","float","float","float","float","float","float","float","float","float","float","float","float","float","float","float","float","float","float","float","float","float","float","float","float","float","float","float","float","float","float","float","float","float","float","float","float","float","float"],"gradient_booster":{"model":{"cats":{"enc":[],"feature_segments":[],"sorted_idx":[]},"gbtree_model_param":{"num_parallel_tree":"1","num_trees":"200"},"iteration_indptr":[0,1,2,3,4,5,6,7,8,9,10,11,12,13,14,15,16,17,18,19,20,21,22,23,24,25,26,27,28,29,30,31,32,33,34,35,36,37,38,39,40,41,42,43,44,45,46,47,48,49,50,51,52,53,54,55,56,57,58,59,60,61,62,63,64,65,66,67,68,69,70,71,72,73,74,75,76,77,78,79,80,81,82,83,84,85,86,87,88,89,90,91,92,93,94,95,96,97,98,99,100,101,102,103,104,105,106,107,108,109,110,111,112,113,114,115,116,117,118,119,120,121,122,123,124,125,126,127,128,129,130,131,132,133,134,135,136,137,138,139,140,141,142,143,144,145,146,147,148,149,150,151,152,153,154,155,156,157,158,159,160,161,162,163,164,165,166,167,168,169,170,171,172,173,174,175,176,177,178,179,180,181,182,183,184,185,186,187,188,189,190,191,192,193,194,195,196,197,198,199,200],"tree_info":[0,0,0,0,0,0,0,0,0,0,0,0,0,0,0,0,0,0,0,0,0,0,0,0,0,0,0,0,0,0,0,0,0,0,0,0,0,0,0,0,0,0,0,0,0,0,0,0,0,0,0,0,0,0,0,0,0,0,0,0,0,0,0,0,0,0,0,0,0,0,0,0,0,0,0,0,0,0,0,0,0,0,0,0,0,0,0,0,0,0,0,0,0,0,0,0,0,0,0,0,0,0,0,0,0,0,0,0,0,0,0,0,0,0,0,0,0,0,0,0,0,0,0,0,0,0,0,0,0,0,0,0,0,0,0,0,0,0,0,0,0,0,0,0,0,0,0,0,0,0,0,0,0,0,0,0,0,0,0,0,0,0,0,0,0,0,0,0,0,0,0,0,0,0,0,0,0,0,0,0,0,0,0,0,0,0,0,0,0,0,0,0,0,0,0,0,0,0,0,0],"trees":[{"base_weights":[-1.01771704E-7,-1.0040069E0,1.3949785E0,-1.207597E0,5.086942E-1,8.6420214E-1,1.6941767E0,-1.3195745E0,1.589286E0,1.4184992E0,-6.057237E-1,3.5134578E-1,1.0119253E0,1.2993082E0,1.7273171E0,-1.4617428E0,3.002373E-2,5.298943E-1,-5.8693934E-2,-4.182753E-1,5.1432645E-1,-1.0302017E0,1.3418988E0,-5.645889E-1,5.9979934E-1,1.0399088E0,-1.67793E-1,9.56661E-2,1.3706955E0,5.2096033E-1,7.337845E-1,-6.826298E-2,-1.6019397E0,-7.7871394E-1,4.8646787E-1,2.3374036E-1,-3.2761204E-1,-1.9297183E-2,-1.4493127E0,6.305295E-2,4.7483507E-1,-9.8155266E-1,2.3610944E-1,8.0541444E-1,-1.6147949E-1,1.1612262E0,5.973319E-1,1.4556804E0,9.56661E-2,-7.028911E-2,3.7770244E-1,2.3584846E-1,-5.061337E-1,-4.9962404E-1,4.2758957E-1,-5.2941924E-1,-6.6901125E-2,-1.2391603E-1,2.3610944E-1,-2.7689213E-1,9.784432E-2,-4.7889772E-1,-1.2478634E-1,-1.2478634E-1,-3.7991765E-1,2.9775554E-1,-3.672351E-2,-1.6898075E-1,2.3610944E-1,3.9710912E-1,1.6524509E-1,2.3250386E-1,-9.099468E-2,4.5715988E-1,6.305295E-2],"categories":[],"categories_nodes":[],"categories_segments":[],"categories_sizes":[],"default_left":[0,0,0,0,0,0,0,0,0,0,0,0,0,0,0,0,0,0,0,0,0,0,0,0,0,0,0,0,0,0,0,0,0,0,0,0,0,0,0,0,0,0,0,0,0,0,0,0,0,0,0,0,0,0,0,0,0,0,0,0,0,0,0,0,0,0,0,0,0,0,0,0,0,0,0],"id":0,"left_children":[1,3,5,7,9,11,13,15,17,19,21,23,25,27,29,31,33,-1,-1,35,-1,37,39,41,43,45,-1,-1,47,-1,49,51,53,55,-1,57,-1,59,61,-1,-1,63,-1,65,67,69,71,73,-1,-1,-1,-1,-1,-1,-1,-1,-1,-1,-1,-1,-1,-1,-1,-1,-1,-1,-1,-1,-1,-1,-1,-1,-1,-1,-1],"loss_changes":[1.4221095E3,1.8244989E2,6.602112E1,1.6517047E2,7.2584526E1,1.1404938E1,1.2983398E0,9.620746E1,6.82251E0,2.2048698E1,2.8247852E1,8.5870075E0,5.857231E0,1.3124466E0,9.8516846E-1,8.8476746E1,6.400333E1,0E0,0E0,3.00064E0,0E0,1.1516033E1,1.3710079E0,5.421539E0,4.6689234E0,5.6547394E0,0E0,0E0,1.5914917E0,0E0,2.328639E0,6.010491E1,8.153003E1,1.76864E1,0E0,1.7564205E0,0E0,3.1102655E0,2.2600784E0,0E0,0E0,5.6058645E-1,0E0,4.113846E0,3.1107545E0,8.369003E0,4.6353426E0,1.4629593E0,0E0,0E0,0E0,0E0,0E0,0E0,0E0,0E0,0E0,0E0,0E0,0E0,0E0,0E0,0E0,0E0,0E0,0E0,0E0,0E0,0E0,0E0,0E0,0E0,0E0,0E0,0E0],"parents":[2147483647,0,0,1,1,2,2,3,3,4,4,5,5,6,6,7,7,8,8,9,9,10,10,11,11,12,12,13,13,14,14,15,15,16,16,19,19,21,21,22,22,23,23,24,24,25,25,28,28,30,30,31,31,32,32,33,33,35,35,37,37,38,38,41,41,43,43,44,44,45,45,46,46,47,47],"right_children":[2,4,6,8,10,12,14,16,18,20,22,24,26,28,30,32,34,-1,-1,36,-1,38,40,42,44,46,-1,-1,48,-1,50,52,54,56,-1,58,-1,60,62,-1,-1,64,-1,66,68,70,72,74,-1,-1,-1,-1,-1,-1,-1,-1,-1,-1,-1,-1,-1,-1,-1,-1,-1,-1,-1,-1,-1,-1,-1,-1,-1,-1,-1],"split_conditions":[-9.927351E-2,2.8918138E0,4.5791093E-1,6.6746206E0,8.8962203E-1,1.4135711E-2,5.368043E-1,3.7142456E0,4.6527457E0,-8.438297E-1,6.007842E-1,6.738612E-1,6.7926087E0,-5.406679E-1,3.4022264E0,-1.2907441E0,-6.996415E-1,5.298943E-1,-5.8693934E-2,9.554457E-1,5.1432645E-1,9.681601E-3,-7.180934E-1,2.7917604E0,4.9595675E-1,1.7179252E0,-1.67793E-1,9.56661E-2,1.3314662E0,5.2096033E-1,1.0890579E0,1.7179252E0,1.0017485E1,-8.167101E-1,4.8646787E-1,-7.042552E-1,-3.2761204E-1,-8.0438304E-1,8.467706E-1,6.305295E-2,4.7483507E-1,-1.2262057E-1,2.3610944E-1,2.678318E0,1.0406488E0,2.3830123E0,-2.3895111E-2,3.7142456E0,9.56661E-2,-7.028911E-2,3.7770244E-1,2.3584846E-1,-5.061337E-1,-4.9962404E-1,4.2758957E-1,-5.2941924E-1,-6.6901125E-2,-1.2391603E-1,2.3610944E-1,-2.7689213E-1,9.784432E-2,-4.7889772E-1,-1.2478634E-1,-1.2478634E-1,-3.7991765E-1,2.9775554E-1,-3.672351E-2,-1.6898075E-1,2.3610944E-1,3.9710912E-1,1.6524509E-1,2.3250386E-1,-9.099468E-2,4.5715988E-1,6.305295E-2],"split_indices":[6,30,6,37,3,6,6,33,13,6,5,27,34,2,2,5,5,0,0,5,0,5,6,36,7,29,0,0,0,0,6,29,40,6,0,0,0,6,0,0,0,0,0,8,0,35,2,33,0,0,0,0,0,0,0,0,0,0,0,0,0,0,0,0,0,0,0,0,0,0,0,0,0,0,0],"split_type":[0,0,0,0,0,0,0,0,0,0,0,0,0,0,0,0,0,0,0,0,0,0,0,0,0,0,0,0,0,0,0,0,0,0,0,0,0,0,0,0,0,0,0,0,0,0,0,0,0,0,0,0,0,0,0,0,0,0,0,0,0,0,0,0,0,0,0,0,0,0,0,0,0,0,0],"sum_hessian":[1.0133806E3,5.8943054E2,4.2395007E2,5.196888E2,6.974178E1,1.5423183E2,2.6971823E2,5.0019107E2,1.9497704E1,3.8245495E1,3.149629E1,3.524585E1,1.18985985E2,2.3997173E1,2.4572105E2,4.5244672E2,4.7744377E1,1.774791E1,1.7497939E0,5.2493815E0,3.2996113E1,2.6246908E1,5.2493815E0,7.249146E0,2.7996702E1,1.1723619E2,1.7497939E0,1.9997644E0,2.199741E1,2.427214E2,2.9996467E0,4.1495113E1,4.109516E2,3.1996231E1,1.5748145E1,2.9996467E0,2.2497349E0,7.999058E0,1.824785E1,1.2498528E0,3.999529E0,5.749323E0,1.4998233E0,2.199741E1,5.9992933E0,9.073931E1,2.649688E1,1.9997644E1,1.9997644E0,1.2498528E0,1.7497939E0,2.7496761E1,1.3998351E1,4.0295255E2,7.999058E0,1.07487335E1,2.1247498E1,1.4998233E0,1.4998233E0,1.7497939E0,6.249264E0,1.5498175E1,2.7496762E0,2.7496762E0,2.9996467E0,1.824785E1,3.7495584E0,4.4994698E0,1.4998233E0,7.074167E1,1.9997644E1,2.224738E1,4.2494993E0,1.8747791E1,1.2498528E0],"tree_param":{"num_deleted":"0","num_feature":"41","num_nodes":"75","size_leaf_vector":"1"}},{"base_weights":[3.1570042E-3,-8.2281643E-1,9.847016E-1,-1.3326494E0,-4.894961E-1,5.700695E-1,1.2901514E0,-1.3907633E0,7.686693E-1,-1.6338323E-1,-1.3824797E0,7.057303E-1,5.838704E-2,1.3267156E0,1.044149E0,-1.4505315E0,-6.2579054E-1,3.7317762E-1,-2.6675276E-2,2.698891E-2,-1.3276165E0,-1.4785277E0,3.5551137E-1,8.3416736E-1,1.7571257E-1,7.473414E-1,-3.815191E-1,1.0221902E0,1.3522537E0,7.5229275E-1,1.3651342E0,-1.5249856E0,-6.694464E-1,-1.1596564E0,3.0772722E-1,2.1595415E-1,-1.385401E0,-1.4651558E0,5.9745423E-3,-4.649558E-1,3.0498648E-1,8.7881994E-1,-8.0478954E-1,6.6927135E-1,-3.5555845E-1,9.000228E-1,-1.8619435E-1,-1.0300994E0,3.092983E-1,4.0239084E-1,6.0186315E-1,4.0783787E-1,1.4015037E-1,9.8010206E-1,1.681555E-1,1.16241835E-1,4.2411673E-1,-2.619068E-1,-4.6548158E-1,2.0590112E-2,-3.3785668E-1,-3.9170006E-1,-8.200488E-3,2.3719904E-1,-1.0821052E-1,-4.5882615E-1,-1.685716E-2,-2.62381E-1,-4.6628544E-1,-2.1404308E-1,2.869373E-1,2.9016405E-1,1.1158896E-1,-2.1111313E-2,-3.4139335E-1,3.7202737E-1,2.9623384E-2,-1.9795358E-1,6.0393598E-2,2.99579E-1,2.6225347E-2,-7.727583E-2,-3.5977006E-1,-1.1344892E-2,3.8528314E-1,2.2636361E-1,-9.6498124E-2,3.2106578E-1,-2.0389086E-2,-7.2955884E-2,2.4008967E-1],"categories":[],"categories_nodes":[],"categories_segments":[],"categories_sizes":[],"default_left":[0,0,0,0,0,0,0,0,0,0,0,0,0,0,0,0,0,0,0,0,0,0,0,0,0,0,0,0,0,0,0,0,0,0,0,0,0,0,0,0,0,0,0,0,0,0,0,0,0,0,0,0,0,0,0,0,0,0,0,0,0,0,0,0,0,0,0,0,0,0,0,0,0,0,0,0,0,0,0,0,0,0,0,0,0,0,0,0,0,0,0],"id":1,"left_children":[1,3,5,7,9,11,13,15,17,19,21,23,25,27,29,31,33,-1,-1,35,37,39,-1,41,43,45,47,49,51,53,55,57,59,61,-1,63,65,67,69,-1,-1,71,73,75,77,79,-1,81,83,-1,85,-1,-1,87,89,-1,-1,-1,-1,-1,-1,-1,-1,-1,-1,-1,-1,-1,-1,-1,-1,-1,-1,-1,-1,-1,-1,-1,-1,-1,-1,-1,-1,-1,-1,-1,-1,-1,-1,-1,-1],"loss_changes":[7.8073914E2,8.821631E1,5.4997803E1,2.6243805E1,9.232001E1,1.3040775E1,8.868103E-1,8.280487E0,2.6343033E0,5.1880608E1,2.2683212E1,9.987915E0,1.2585387E1,2.992859E-1,2.4750023E0,9.775024E0,1.5580999E1,0E0,0E0,5.4217636E1,6.0421906E0,1.6215363E1,0E0,9.457741E0,8.184635E0,3.9325218E0,1.171314E1,1.9862175E0,6.1743164E-1,2.7370644E0,2.3957443E-1,1.5732422E0,6.124423E0,2.0812664E0,0E0,5.9623646E1,4.5035057E0,2.103424E-1,3.4664483E0,0E0,0E0,4.8765793E0,8.236389E-1,5.1069965E0,2.7166672E0,1.1094027E0,0E0,1.4350653E0,4.4764986E0,0E0,1.7658279E0,0E0,0E0,1.5349312E0,2.099444E0,0E0,0E0,0E0,0E0,0E0,0E0,0E0,0E0,0E0,0E0,0E0,0E0,0E0,0E0,0E0,0E0,0E0,0E0,0E0,0E0,0E0,0E0,0E0,0E0,0E0,0E0,0E0,0E0,0E0,0E0,0E0,0E0,0E0,0E0,0E0,0E0],"parents":[2147483647,0,0,1,1,2,2,3,3,4,4,5,5,6,6,7,7,8,8,9,9,10,10,11,11,12,12,13,13,14,14,15,15,16,16,19,19,20,20,21,21,23,23,24,24,25,25,26,26,27,27,28,28,29,29,30,30,31,31,32,32,33,33,35,35,36,36,37,37,38,38,41,41,42,42,43,43,44,44,45,45,47,47,48,48,50,50,53,53,54,54],"right_children":[2,4,6,8,10,12,14,16,18,20,22,24,26,28,30,32,34,-1,-1,36,38,40,-1,42,44,46,48,50,52,54,56,58,60,62,-1,64,66,68,70,-1,-1,72,74,76,78,80,-1,82,84,-1,86,-1,-1,88,90,-1,-1,-1,-1,-1,-1,-1,-1,-1,-1,-1,-1,-1,-1,-1,-1,-1,-1,-1,-1,-1,-1,-1,-1,-1,-1,-1,-1,-1,-1,-1,-1,-1,-1,-1,-1],"split_conditions":[-2.1761356E-1,-7.9205596E-1,4.5791093E-1,6.6746206E0,1.7179252E0,1.7179252E0,2.5374262E0,3.7142456E0,-1.6990393E-1,2.3830123E0,1.0017485E1,2.3830123E0,1.4797345E0,5.368043E-1,1.2690334E0,2.8918138E0,-4.6320045E-1,3.7317762E-1,-2.6675276E-2,2.8442373E0,-2.7185276E-1,3.2788298E0,3.5551137E-1,6.7926087E0,3.6434314E-1,2.5374262E0,1.1768326E-1,4.948922E-1,7.2347846E0,-1.5940443E-1,-8.0119437E-1,-1.4089646E0,8.8962203E-1,-8.167101E-1,3.0772722E-1,8.8962203E-1,-2.940415E-1,-8.9813346E-1,4.9595675E-1,-4.649558E-1,3.0498648E-1,3.2788298E0,-4.862017E-1,-7.042552E-1,1.1918868E0,2.3969615E0,-1.8619435E-1,-8.0119437E-1,1.4283278E0,4.0239084E-1,2.3969615E0,4.0783787E-1,1.4015037E-1,2.8442373E0,1.4797345E0,1.16241835E-1,4.2411673E-1,-2.619068E-1,-4.6548158E-1,2.0590112E-2,-3.3785668E-1,-3.9170006E-1,-8.200488E-3,2.3719904E-1,-1.0821052E-1,-4.5882615E-1,-1.685716E-2,-2.62381E-1,-4.6628544E-1,-2.1404308E-1,2.869373E-1,2.9016405E-1,1.1158896E-1,-2.1111313E-2,-3.4139335E-1,3.7202737E-1,2.9623384E-2,-1.9795358E-1,6.0393598E-2,2.99579E-1,2.6225347E-2,-7.727583E-2,-3.5977006E-1,-1.1344892E-2,3.8528314E-1,2.2636361E-1,-9.6498124E-2,3.2106578E-1,-2.0389086E-2,-7.2955884E-2,2.4008967E-1],"split_indices":[6,6,6,37,29,29,23,33,2,35,40,35,38,6,6,30,5,0,0,31,6,39,0,34,5,23,6,6,11,2,0,5,3,6,0,3,6,0,7,0,0,39,2,0,5,4,0,0,5,0,4,0,0,31,38,0,0,0,0,0,0,0,0,0,0,0,0,0,0,0,0,0,0,0,0,0,0,0,0,0,0,0,0,0,0,0,0,0,0,0,0],"split_type":[0,0,0,0,0,0,0,0,0,0,0,0,0,0,0,0,0,0,0,0,0,0,0,0,0,0,0,0,0,0,0,0,0,0,0,0,0,0,0,0,0,0,0,0,0,0,0,0,0,0,0,0,0,0,0,0,0,0,0,0,0,0,0,0,0,0,0,0,0,0,0,0,0,0,0,0,0,0,0,0,0,0,0,0,0,0,0,0,0,0,0],"sum_hessian":[9.610085E2,5.2194855E2,4.3905994E2,2.0515456E2,3.1679398E2,1.8745964E2,2.516003E2,1.9996254E2,5.192005E0,2.3291692E2,8.387707E1,1.4787479E2,3.9584846E1,2.1521857E2,3.6381737E1,1.8464023E2,1.5322323E1,3.0508149E0,2.1411903E0,2.0102301E2,3.1893898E1,8.126131E1,2.6157548E0,1.1856868E2,2.9306108E1,1.5153495E1,2.443135E1,1.9826538E1,1.9539203E2,2.0806814E1,1.5574922E1,1.6770221E2,1.693801E1,1.1804374E1,3.5179489E0,1.7804877E2,2.2974247E1,2.8822634E1,3.0712643E0,7.93713E1,1.8900088E0,1.158755E2,2.693178E0,1.5057609E1,1.4248499E1,1.393976E1,1.213735E0,1.234758E1,1.2083771E1,1.0024692E1,9.8018465E0,1.9328249E2,2.1095448E0,1.4481337E1,6.3254786E0,1.1623075E0,1.4412614E1,7.904449E0,1.5979776E2,6.7996855E0,1.0138324E1,1.0320481E1,1.4838918E0,8.898903E1,8.9059746E1,2.059244E1,2.3818078E0,5.197524E0,2.362511E1,1.8900088E0,1.1812555E0,9.789483E1,1.7980679E1,1.2185149E0,1.4746631E0,6.940226E0,8.117382E0,9.094267E0,5.154233E0,1.2227597E1,1.712163E0,2.6709752E0,9.676605E0,9.620033E0,2.4637372E0,8.568264E0,1.2335832E0,1.3315291E1,1.1660444E0,4.2047234E0,2.1207552E0],"tree_param":{"num_deleted":"0","num_feature":"41","num_nodes":"91","size_leaf_vector":"1"}},{"base_weights":[9.009822E-4,-6.5653986E-1,7.7846247E-1,-7.884938E-1,3.002694E-1,2.2814918E-1,9.6883506E-1,-8.656005E-1,1.1000993E0,8.833914E-1,-3.558726E-1,3.5504472E-1,-3.2045954E-1,7.0888114E-1,1.0919328E0,-9.6468633E-1,-2.8362717E-2,1.2739422E0,-7.895267E-2,-7.9465294E-1,1.1043826E0,-6.719713E-1,1.1090704E0,4.8074782E-1,-2.1166292E-1,5.172709E-1,-7.549021E-1,7.370592E-1,-2.1370023E-1,1.1057547E0,5.333367E-1,-3.1051436E-2,-1.066053E0,-5.815612E-1,1.1377307E0,7.440177E-2,1.3327904E0,-3.5187218E-1,-1.6382251E-2,1.1512563E0,5.495437E-2,1.1289962E-1,-1.0308324E0,9.390408E-2,3.815683E-1,8.212E-1,1.3209379E-1,2.3175703E-2,-2.8725356E-1,2.8877795E-1,1.2040452E-1,-9.6263444E-1,4.5417227E-2,8.427967E-1,3.678176E-1,3.125713E-1,1.2169015E0,-1.2954204E-1,3.1616235E-1,-3.02242E-1,1.7913812E-1,-3.3492154E-1,3.136058E-1,-3.08697E-1,6.398203E-2,3.9341763E-1,1.12128474E-1,4.167533E-1,1.11614525E-1,3.6078125E-1,1.3461347E-1,-1.21391535E-1,1.4048082E-1,-3.5646915E-1,-4.7958203E-2,2.860359E-1,5.076876E-2,-7.992343E-3,3.8448307E-1,-1.6654564E-1,1.0145246E-1,1.4213851E-1,-1.6546646E-1,-1.2571195E-1,-3.2869947E-1,-1.524558E-1,1.9524859E-1,-2.3036096E-2,2.6455292E-1,3.7386894E-2,2.8445002E-1,3.798195E-1,1.955441E-1,7.593843E-2,-1.6832349E-1],"categories":[],"categories_nodes":[],"categories_segments":[],"categories_sizes":[],"default_left":[0,0,0,0,0,0,0,0,0,0,0,0,0,0,0,0,0,0,0,0,0,0,0,0,0,0,0,0,0,0,0,0,0,0,0,0,0,0,0,0,0,0,0,0,0,0,0,0,0,0,0,0,0,0,0,0,0,0,0,0,0,0,0,0,0,0,0,0,0,0,0,0,0,0,0,0,0,0,0,0,0,0,0,0,0,0,0,0,0,0,0,0,0,0,0],"id":2,"left_children":[1,3,5,7,9,11,13,15,17,19,21,23,25,27,29,31,33,35,-1,37,39,41,43,45,47,49,51,53,-1,55,57,59,61,63,65,-1,67,-1,-1,69,-1,71,73,-1,-1,75,77,79,-1,-1,81,83,85,87,89,-1,91,93,-1,-1,-1,-1,-1,-1,-1,-1,-1,-1,-1,-1,-1,-1,-1,-1,-1,-1,-1,-1,-1,-1,-1,-1,-1,-1,-1,-1,-1,-1,-1,-1,-1,-1,-1,-1,-1],"loss_changes":[4.4781738E2,6.0166183E1,4.182524E1,6.1737976E1,2.2602411E1,7.3859634E0,8.757996E0,3.3289062E1,4.3201237E0,1.2421486E1,1.37680435E1,6.179147E0,7.72363E0,4.4727592E0,9.567566E-1,3.3949493E1,2.8741901E1,5.801258E-1,0E0,1.112787E0,9.949379E-1,6.807029E0,2.9773378E-1,8.215971E0,2.8565824E0,1.2050413E0,2.317184E0,3.483101E0,0E0,1.1268616E-1,2.4719558E0,2.2803806E1,3.559958E1,1.09543495E1,1.4129486E0,0E0,2.4357796E-1,0E0,0E0,4.1216278E-1,0E0,1.7260242E0,2.0582905E0,0E0,0E0,2.8815937E0,6.573702E0,2.6076453E0,0E0,0E0,1.4712236E0,3.2923603E-1,1.5952755E0,2.7517242E0,3.184737E0,0E0,9.8124695E-1,7.807136E-1,0E0,0E0,0E0,0E0,0E0,0E0,0E0,0E0,0E0,0E0,0E0,0E0,0E0,0E0,0E0,0E0,0E0,0E0,0E0,0E0,0E0,0E0,0E0,0E0,0E0,0E0,0E0,0E0,0E0,0E0,0E0,0E0,0E0,0E0,0E0,0E0,0E0],"parents":[2147483647,0,0,1,1,2,2,3,3,4,4,5,5,6,6,7,7,8,8,9,9,10,10,11,11,12,12,13,13,14,14,15,15,16,16,17,17,19,19,20,20,21,21,22,22,23,23,24,24,25,25,26,26,27,27,29,29,30,30,31,31,32,32,33,33,34,34,36,36,39,39,41,41,42,42,45,45,46,46,47,47,50,50,51,51,52,52,53,53,54,54,56,56,57,57],"right_children":[2,4,6,8,10,12,14,16,18,20,22,24,26,28,30,32,34,36,-1,38,40,42,44,46,48,50,52,54,-1,56,58,60,62,64,66,-1,68,-1,-1,70,-1,72,74,-1,-1,76,78,80,-1,-1,82,84,86,88,90,-1,92,94,-1,-1,-1,-1,-1,-1,-1,-1,-1,-1,-1,-1,-1,-1,-1,-1,-1,-1,-1,-1,-1,-1,-1,-1,-1,-1,-1,-1,-1,-1,-1,-1,-1,-1,-1,-1,-1],"split_conditions":[-2.1761356E-1,2.8918138E0,1.5219912E-1,6.6746206E0,8.8962203E-1,1.7179252E0,5.368043E-1,3.7142456E0,4.6527457E0,-8.758801E-1,6.007842E-1,2.3830123E0,1.4797345E0,6.7926087E0,2.3955858E0,-1.2907441E0,-6.996415E-1,-9.0299976E-1,-7.895267E-2,-6.0731614E-1,8.623881E-1,9.681601E-3,-7.180934E-1,-2.3690589E-1,-1.1018796E-1,-4.894828E-1,2.5374262E0,1.9664046E0,-2.1370023E-1,1.5090672E0,1.2394484E0,-7.254897E-1,1.0017485E1,1.4579693E0,1.1375879E0,7.440177E-2,-3.6800405E-1,-3.5187218E-1,-1.6382251E-2,2.6630464E0,5.495437E-2,-3.8087848E-1,8.467706E-1,9.390408E-2,3.815683E-1,3.2788298E0,1.7192225E0,-2.3690589E-1,-2.8725356E-1,2.8877795E-1,-1.054303E0,-4.323917E-1,-1.0518468E-2,-1.4089646E0,1.5090672E0,3.125713E-1,2.8442373E0,5.559532E-1,3.1616235E-1,-3.02242E-1,1.7913812E-1,-3.3492154E-1,3.136058E-1,-3.08697E-1,6.398203E-2,3.9341763E-1,1.12128474E-1,4.167533E-1,1.11614525E-1,3.6078125E-1,1.3461347E-1,-1.21391535E-1,1.4048082E-1,-3.5646915E-1,-4.7958203E-2,2.860359E-1,5.076876E-2,-7.992343E-3,3.8448307E-1,-1.6654564E-1,1.0145246E-1,1.4213851E-1,-1.6546646E-1,-1.2571195E-1,-3.2869947E-1,-1.524558E-1,1.9524859E-1,-2.3036096E-2,2.6455292E-1,3.7386894E-2,2.8445002E-1,3.798195E-1,1.955441E-1,7.593843E-2,-1.6832349E-1],"split_indices":[6,30,6,37,3,29,6,33,13,6,5,35,38,34,2,5,5,6,0,0,7,5,6,7,2,2,23,9,0,22,6,6,40,25,0,0,6,0,0,20,0,2,0,0,0,39,0,7,0,0,5,2,6,5,22,0,31,0,0,0,0,0,0,0,0,0,0,0,0,0,0,0,0,0,0,0,0,0,0,0,0,0,0,0,0,0,0,0,0,0,0,0,0,0,0],"split_type":[0,0,0,0,0,0,0,0,0,0,0,0,0,0,0,0,0,0,0,0,0,0,0,0,0,0,0,0,0,0,0,0,0,0,0,0,0,0,0,0,0,0,0,0,0,0,0,0,0,0,0,0,0,0,0,0,0,0,0,0,0,0,0,0,0,0,0,0,0,0,0,0,0,0,0,0,0,0,0,0,0,0,0,0,0,0,0,0,0,0,0,0,0,0,0],"sum_hessian":[8.7401117E2,4.7367062E2,4.0034055E2,4.1641812E2,5.72525E1,1.0346139E2,2.9687915E2,4.006041E2,1.5814025E1,3.0129595E1,2.7122906E1,8.431239E1,1.9148994E1,9.7577286E1,1.9930188E2,3.580743E2,4.2529785E1,1.4083628E1,1.7303971E0,3.204109E0,2.6925486E1,2.275437E1,4.368536E0,6.913012E1,1.5182272E1,6.474206E0,1.2674788E1,9.615229E1,1.4249941E0,1.9353355E2,5.7683277E0,3.519726E1,3.2287708E2,2.9185408E1,1.33443775E1,1.0468893E0,1.3036738E1,1.733278E0,1.4708309E0,2.5384127E1,1.5413586E0,7.3545365E0,1.5399833E1,1.2380475E0,3.1304884E0,3.429072E1,3.48394E1,1.228358E1,2.8986917E0,2.3791203E0,4.0950856E0,9.901837E0,2.7729511E0,7.375033E1,2.2401957E1,1.2950883E2,6.402472E1,2.8676534E0,2.9006743E0,1.3542852E1,2.1654408E1,3.1581683E2,7.060241E0,1.8485144E1,1.0700264E1,1.0288989E1,3.0553885E0,1.1892794E1,1.1439453E0,2.2991903E1,2.3922236E0,2.9376655E0,4.416871E0,1.273429E1,2.6655424E0,2.8123438E1,6.1672845E0,3.147051E1,3.36889E0,4.062526E0,8.221054E0,2.8769648E0,1.2181207E0,2.7627056E0,7.1391315E0,1.5323375E0,1.2406135E0,2.9645858E0,7.078574E1,1.6642624E1,5.7593336E0,5.775913E1,6.265589E0,1.7389996E0,1.1286539E0],"tree_param":{"num_deleted":"0","num_feature":"41","num_nodes":"95","size_leaf_vector":"1"}},{"base_weights":[3.3977823E-3,-6.8756616E-1,5.0908417E-1,-7.4398535E-1,9.001859E-1,1.055019E-1,7.9919225E-1,-8.4936845E-1,8.241905E-2,1.11421E0,-6.377765E-2,2.8360078E-1,-6.599022E-1,5.441819E-1,9.319836E-1,-9.445362E-1,-1.02494195E-1,6.588209E-1,-5.2048683E-1,6.413656E-2,3.5760602E-1,4.0481898E-1,-3.3754262E-1,-9.336022E-1,-2.364347E-2,4.314241E-1,9.311685E-1,9.712855E-1,6.859177E-1,8.6443715E-2,-1.0157804E0,-5.2062917E-1,1.0958251E0,-6.630035E-1,9.5260084E-1,2.9356173E-1,-7.304129E-1,4.5965505E-1,-3.2881483E-1,2.872682E-1,-4.510346E-1,6.1552983E-2,-9.9007666E-1,5.7266796E-1,-4.9509737E-1,5.249768E-1,1.8695377E-2,2.4047611E-2,9.954632E-1,9.795122E-1,6.178401E-2,3.719638E-1,1.0196812E0,2.661613E-1,-3.1436336E-1,-3.1721815E-1,2.2149114E-1,-2.5035372E-1,6.49182E-3,9.372115E-2,3.5639277E-1,-9.60718E-3,-3.004195E-1,3.3443528E-1,6.843363E-2,-1.05839096E-1,2.755527E-1,-2.9294717E-1,-2.902203E-3,7.0662424E-2,3.2827568E-1,-7.2174214E-2,-3.1000283E-1,-3.5099325E-1,-1.6613895E-1,-2.5286384E-2,2.9907247E-1,6.057472E-2,-1.9510166E-1,2.0686452E-1,8.08846E-3,-1.906791E-1,1.4454256E-1,2.3376852E-2,3.1928828E-1,2.9849973E-1,1.6661477E-1,1.9784525E-1,-5.9332196E-2,3.447496E-1,1.2441901E-1],"categories":[],"categories_nodes":[],"categories_segments":[],"categories_sizes":[],"default_left":[0,0,0,0,0,0,0,0,0,0,0,0,0,0,0,0,0,0,0,0,0,0,0,0,0,0,0,0,0,0,0,0,0,0,0,0,0,0,0,0,0,0,0,0,0,0,0,0,0,0,0,0,0,0,0,0,0,0,0,0,0,0,0,0,0,0,0,0,0,0,0,0,0,0,0,0,0,0,0,0,0,0,0,0,0,0,0,0,0,0,0],"id":3,"left_children":[1,3,5,7,9,11,13,15,17,19,-1,21,23,25,27,29,31,33,35,-1,-1,37,39,41,43,45,47,49,51,53,55,57,59,61,63,65,67,69,-1,-1,71,-1,73,75,77,79,81,-1,83,85,-1,87,89,-1,-1,-1,-1,-1,-1,-1,-1,-1,-1,-1,-1,-1,-1,-1,-1,-1,-1,-1,-1,-1,-1,-1,-1,-1,-1,-1,-1,-1,-1,-1,-1,-1,-1,-1,-1,-1,-1],"loss_changes":[2.7237726E2,3.0179138E1,5.2615677E1,2.7822159E1,3.036807E0,2.6004679E1,8.355408E0,1.999794E1,1.3184241E1,4.4719887E-1,0E0,1.1757619E1,6.2559834E0,3.6136646E0,9.845581E-1,1.8497543E1,1.7142527E1,8.138865E0,3.3962746E0,0E0,0E0,1.1169626E1,4.216333E0,1.8226109E0,3.6204367E0,2.8135366E0,1.0090103E0,7.098694E-1,2.4407911E0,1.6481968E1,1.7898834E1,4.3067293E0,2.697611E-1,8.444363E-1,1.6524305E0,2.1540868E0,2.6666737E0,1.7623924E1,0E0,0E0,2.7357883E0,0E0,1.248579E0,1.6738986E0,9.066093E-1,4.8639393E0,4.7146187E0,0E0,1.0800114E0,3.8653564E-1,0E0,2.660021E0,5.002384E-1,0E0,0E0,0E0,0E0,0E0,0E0,0E0,0E0,0E0,0E0,0E0,0E0,0E0,0E0,0E0,0E0,0E0,0E0,0E0,0E0,0E0,0E0,0E0,0E0,0E0,0E0,0E0,0E0,0E0,0E0,0E0,0E0,0E0,0E0,0E0,0E0,0E0,0E0],"parents":[2147483647,0,0,1,1,2,2,3,3,4,4,5,5,6,6,7,7,8,8,9,9,11,11,12,12,13,13,14,14,15,15,16,16,17,17,18,18,21,21,22,22,23,23,24,24,25,25,26,26,27,27,28,28,29,29,30,30,31,31,32,32,33,33,34,34,35,35,36,36,37,37,40,40,42,42,43,43,44,44,45,45,46,46,48,48,49,49,51,51,52,52],"right_children":[2,4,6,8,10,12,14,16,18,20,-1,22,24,26,28,30,32,34,36,-1,-1,38,40,42,44,46,48,50,52,54,56,58,60,62,64,66,68,70,-1,-1,72,-1,74,76,78,80,82,-1,84,86,-1,88,90,-1,-1,-1,-1,-1,-1,-1,-1,-1,-1,-1,-1,-1,-1,-1,-1,-1,-1,-1,-1,-1,-1,-1,-1,-1,-1,-1,-1,-1,-1,-1,-1,-1,-1,-1,-1,-1,-1],"split_conditions":[-4.9127495E-1,6.6746206E0,1.5219912E-1,2.8918138E0,4.6527457E0,1.7179252E0,5.368043E-1,3.7142456E0,8.8962203E-1,-9.0299976E-1,-6.377765E-2,2.3830123E0,-9.927351E-2,1.9033068E0,2.5374262E0,-1.4089646E0,-4.6320045E-1,-8.758801E-1,-7.042552E-1,6.413656E-2,3.5760602E-1,6.7926087E0,-1.1889508E0,-1.28589E0,-4.2615762E-1,9.554457E-1,1.916458E-1,7.2347846E0,1.2690334E0,1.7179252E0,1.0017485E1,-1.2907441E0,-8.956035E-1,-4.0811157E-1,1.0736662E0,2.4612263E-1,1.7001772E-1,6.007842E-1,-3.2881483E-1,2.872682E-1,1.5090672E0,6.1552983E-2,-9.509492E-2,1.8086218E-3,-6.2292244E-2,1.7179252E0,1.4283278E0,2.4047611E-2,-1.4089646E0,3.9864354E0,6.178401E-2,1.01263E0,7.190047E-1,2.661613E-1,-3.1436336E-1,-3.1721815E-1,2.2149114E-1,-2.5035372E-1,6.49182E-3,9.372115E-2,3.5639277E-1,-9.60718E-3,-3.004195E-1,3.3443528E-1,6.843363E-2,-1.05839096E-1,2.755527E-1,-2.9294717E-1,-2.902203E-3,7.0662424E-2,3.2827568E-1,-7.2174214E-2,-3.1000283E-1,-3.5099325E-1,-1.6613895E-1,-2.5286384E-2,2.9907247E-1,6.057472E-2,-1.9510166E-1,2.0686452E-1,8.08846E-3,-1.906791E-1,1.4454256E-1,2.3376852E-2,3.1928828E-1,2.9849973E-1,1.6661477E-1,1.9784525E-1,-5.9332196E-2,3.447496E-1,1.2441901E-1],"split_indices":[6,37,6,30,13,29,6,33,3,6,0,35,6,12,23,5,5,6,0,0,0,34,0,0,2,5,6,11,6,29,40,5,6,2,5,5,2,5,0,0,22,0,2,6,6,29,5,0,5,28,0,6,5,0,0,0,0,0,0,0,0,0,0,0,0,0,0,0,0,0,0,0,0,0,0,0,0,0,0,0,0,0,0,0,0,0,0,0,0,0,0],"split_type":[0,0,0,0,0,0,0,0,0,0,0,0,0,0,0,0,0,0,0,0,0,0,0,0,0,0,0,0,0,0,0,0,0,0,0,0,0,0,0,0,0,0,0,0,0,0,0,0,0,0,0,0,0,0,0,0,0,0,0,0,0,0,0,0,0,0,0,0,0,0,0,0,0,0,0,0,0,0,0,0,0,0,0,0,0,0,0,0,0,0,0],"sum_hessian":[7.775307E2,3.2842075E2,4.4910995E2,3.1766428E2,1.0756459E1,1.8839249E2,2.6071747E2,2.8171252E2,3.5951767E1,9.020274E0,1.7361847E0,1.5334152E2,3.5050957E1,9.102074E1,1.6969673E2,2.4963857E2,3.2073956E1,1.8332464E1,1.7619303E1,1.015574E0,8.0047E0,1.285942E2,2.4747322E1,2.4181465E1,1.0869493E1,7.212131E1,1.8899426E1,1.4378412E2,2.5912613E1,1.6122034E1,2.3351653E2,2.4196497E1,7.87746E0,3.1050215E0,1.5227443E1,3.5304735E0,1.408883E1,1.2473075E2,3.8634503E0,1.3946905E0,2.3352633E1,1.0181389E0,2.3163326E1,4.7044516E0,6.1650405E0,5.857274E1,1.354857E1,1.4853919E0,1.7414034E1,1.4197815E2,1.8059762E0,1.4442121E1,1.1470492E1,9.578243E0,6.5437903E0,2.2849301E2,5.0235248E0,1.4984206E1,9.212291E0,1.2911205E0,6.5863395E0,1.4660403E0,1.6389811E0,1.2001974E1,3.2254689E0,1.9495778E0,1.5808957E0,1.023836E1,3.8504694E0,9.3190765E1,3.1539982E1,1.8191229E1,5.161403E0,1.5209823E1,7.9535036E0,2.1603572E0,2.5440943E0,1.0682205E0,5.09682E0,4.3735527E1,1.4837213E1,5.4608974E0,8.087672E0,1.3639686E0,1.6050066E1,1.3567796E2,6.300189E0,9.493611E0,4.948509E0,8.7072E0,2.763293E0],"tree_param":{"num_deleted":"0","num_feature":"41","num_nodes":"91","size_leaf_vector":"1"}},{"base_weights":[3.5919729E-3,-6.531152E-1,3.757902E-1,-9.8908377E-1,-4.0548685E-1,1.239985E-1,7.474096E-1,-1.024248E0,2.8338602E-1,-3.7265606E-2,-7.098304E-1,2.543473E-1,-3.741356E-1,5.751338E-1,8.613989E-1,-1.0705931E0,-5.6046915E-1,2.424848E-1,-1.2332764E-1,-3.3840576E-1,6.1839116E-1,-7.7247965E-1,2.9789707E-1,3.5372514E-1,-2.2121833E-1,-7.608988E-1,8.141199E-2,6.141443E-1,-4.0261698E-1,1.0447861E0,7.568226E-1,-1.1102399E0,-6.2408334E-1,-3.1388614E-1,-2.3451145E-1,-4.6181187E-1,8.8402736E-1,-1.816387E-1,1.0695981E0,-8.2679015E-1,2.4684428E-1,1.9636618E-1,7.618208E-1,-8.0583596E-1,-1.5271759E-2,-8.556218E-1,2.2676806E-1,4.3807837E-1,-1.4258187E-1,6.5199167E-1,-1.3429457E-1,-3.369258E-1,1.2058472E-1,3.1953827E-1,8.516382E-2,7.8012705E-1,1.8326183E-1,-3.483955E-1,-2.0075126E-1,-2.9995367E-1,1.6433875E-1,1.3962453E-2,-3.0596414E-1,-1.80493E-1,1.4272788E-1,1.6006954E-2,3.715233E-1,-2.1223931E-1,3.813316E-2,3.874159E-1,-8.463052E-2,2.1953678E-1,-2.5941414E-1,1.11993544E-1,-6.0696628E-2,2.8745824E-1,-2.610979E-1,8.821839E-2,-3.2431695E-1,9.904751E-2,-9.211859E-2,-1.0283097E-2,-2.8428754E-1,2.10577E-1,-1.1829192E-1,-8.5611574E-2,1.6883451E-1,2.557183E-1,1.4518769E-1,1.6151404E-1,2.6087832E-1,2.3213337E-1,-1.7842E-1],"categories":[],"categories_nodes":[],"categories_segments":[],"categories_sizes":[],"default_left":[0,0,0,0,0,0,0,0,0,0,0,0,0,0,0,0,0,0,0,0,0,0,0,0,0,0,0,0,0,0,0,0,0,0,0,0,0,0,0,0,0,0,0,0,0,0,0,0,0,0,0,0,0,0,0,0,0,0,0,0,0,0,0,0,0,0,0,0,0,0,0,0,0,0,0,0,0,0,0,0,0,0,0,0,0,0,0,0,0,0,0,0,0],"id":4,"left_children":[1,3,5,7,9,11,13,15,17,19,21,23,25,27,29,31,33,-1,-1,35,37,39,-1,41,43,45,47,49,51,53,55,57,59,-1,61,63,65,67,69,71,-1,73,75,77,79,81,-1,83,85,87,-1,-1,-1,-1,-1,89,91,-1,-1,-1,-1,-1,-1,-1,-1,-1,-1,-1,-1,-1,-1,-1,-1,-1,-1,-1,-1,-1,-1,-1,-1,-1,-1,-1,-1,-1,-1,-1,-1,-1,-1,-1,-1],"loss_changes":[1.6950656E2,2.0469872E1,4.1323555E1,5.0221634E0,1.6348059E1,1.7305004E1,3.0113068E0,1.6164932E0,1.6544628E0,1.347246E1,9.295197E0,1.003472E1,9.818615E0,3.0742245E0,1.2317276E0,9.4740295E-1,1.5705965E0,0E0,0E0,7.449943E0,7.9538727E0,7.4094276E0,0E0,1.1065472E1,4.4460263E0,4.9635887E0,2.1660233E0,3.1719227E0,2.4499042E0,2.4971008E-1,8.03215E-1,1.1111908E0,4.8807373E0,0E0,1.8468204E0,5.930833E0,1.294908E0,1.4871709E0,4.528249E0,5.101757E0,0E0,9.062298E0,1.6299652E1,3.2321405E0,2.964136E0,2.1399632E0,0E0,2.5614152E0,1.86554E0,1.9314823E0,0E0,0E0,0E0,0E0,0E0,9.9643326E-1,2.3304453E0,0E0,0E0,0E0,0E0,0E0,0E0,0E0,0E0,0E0,0E0,0E0,0E0,0E0,0E0,0E0,0E0,0E0,0E0,0E0,0E0,0E0,0E0,0E0,0E0,0E0,0E0,0E0,0E0,0E0,0E0,0E0,0E0,0E0,0E0,0E0,0E0],"parents":[2147483647,0,0,1,1,2,2,3,3,4,4,5,5,6,6,7,7,8,8,9,9,10,10,11,11,12,12,13,13,14,14,15,15,16,16,19,19,20,20,21,21,23,23,24,24,25,25,26,26,27,27,28,28,29,29,30,30,31,31,32,32,34,34,35,35,36,36,37,37,38,38,39,39,41,41,42,42,43,43,44,44,45,45,47,47,48,48,49,49,55,55,56,56],"right_children":[2,4,6,8,10,12,14,16,18,20,22,24,26,28,30,32,34,-1,-1,36,38,40,-1,42,44,46,48,50,52,54,56,58,60,-1,62,64,66,68,70,72,-1,74,76,78,80,82,-1,84,86,88,-1,-1,-1,-1,-1,90,92,-1,-1,-1,-1,-1,-1,-1,-1,-1,-1,-1,-1,-1,-1,-1,-1,-1,-1,-1,-1,-1,-1,-1,-1,-1,-1,-1,-1,-1,-1,-1,-1,-1,-1,-1,-1],"split_conditions":[-5.652375E-1,-8.388989E-1,3.864138E-1,6.6746206E0,-2.3690589E-1,1.7179252E0,8.77032E-1,2.8918138E0,-1.6990393E-1,1.5090672E0,2.01004E0,2.3830123E0,-9.927351E-2,2.611154E0,-2.3690589E-1,3.7142456E0,-9.572389E-1,2.424848E-1,-1.2332764E-1,3.9864354E0,-4.1631433E-1,6.6746206E0,2.9789707E-1,6.007842E-1,-2.7185276E-1,1.0017485E1,1.4797345E0,6.7926087E0,-2.3690589E-1,7.2347846E0,4.9657054E0,2.678318E0,-6.996415E-1,-3.1388614E-1,1.4283278E0,2.8918138E0,-2.5681453E-2,-4.9899796E-1,1.7179252E0,-1.3828291E0,2.4684428E-1,9.681601E-3,6.7926087E0,-8.9813346E-1,3.6434314E-1,-1.0920117E0,2.2676806E-1,-2.3895111E-2,1.4283278E0,8.6627465E-1,-1.3429457E-1,-3.369258E-1,1.2058472E-1,3.1953827E-1,8.516382E-2,-4.6320045E-1,2.1245334E0,-3.483955E-1,-2.0075126E-1,-2.9995367E-1,1.6433875E-1,1.3962453E-2,-3.0596414E-1,-1.80493E-1,1.4272788E-1,1.6006954E-2,3.715233E-1,-2.1223931E-1,3.813316E-2,3.874159E-1,-8.463052E-2,2.1953678E-1,-2.5941414E-1,1.11993544E-1,-6.0696628E-2,2.8745824E-1,-2.610979E-1,8.821839E-2,-3.2431695E-1,9.904751E-2,-9.211859E-2,-1.0283097E-2,-2.8428754E-1,2.10577E-1,-1.1829192E-1,-8.5611574E-2,1.6883451E-1,2.557183E-1,1.4518769E-1,1.6151404E-1,2.6087832E-1,2.3213337E-1,-1.7842E-1],"split_indices":[6,6,6,37,7,29,6,30,2,22,0,35,6,2,7,33,6,0,0,28,2,37,0,5,6,40,38,34,7,11,14,8,5,0,5,30,0,2,29,0,0,5,34,0,5,0,0,2,5,21,0,0,0,0,0,5,6,0,0,0,0,0,0,0,0,0,0,0,0,0,0,0,0,0,0,0,0,0,0,0,0,0,0,0,0,0,0,0,0,0,0,0,0],"split_type":[0,0,0,0,0,0,0,0,0,0,0,0,0,0,0,0,0,0,0,0,0,0,0,0,0,0,0,0,0,0,0,0,0,0,0,0,0,0,0,0,0,0,0,0,0,0,0,0,0,0,0,0,0,0,0,0,0,0,0,0,0,0,0,0,0,0,0,0,0,0,0,0,0,0,0,0,0,0,0,0,0,0,0,0,0,0,0,0,0,0,0,0,0],"sum_hessian":[6.914863E2,2.4986658E2,4.4161978E2,1.047514E2,1.4511517E2,2.6404742E2,1.7757236E2,1.021243E2,2.6271007E0,6.6174255E1,7.894092E1,2.0967126E2,5.437614E1,7.3115715E1,1.0445665E2,9.165671E1,1.0467592E1,1.402899E0,1.2242017E0,4.5678295E1,2.0495964E1,7.6666595E1,2.274323E0,1.7364192E2,3.6029346E1,2.9045774E1,2.5330366E1,7.066807E1,2.4476485E0,3.4669243E1,6.978741E1,8.28167E1,8.840007E0,3.3157713E0,7.1518207E0,4.2055008E1,3.6232855E0,7.6064653E0,1.2889499E1,7.4608345E1,2.0582497E0,1.2638853E2,4.72534E1,8.627044E0,2.7402304E1,2.7748777E1,1.2969983E0,9.402679E0,1.5927688E1,6.860848E1,2.0595808E0,1.0824506E0,1.365198E0,3.337716E1,1.2920874E0,6.671649E1,3.0709136E0,7.275794E1,1.0058761E1,6.804841E0,2.035166E0,5.959785E0,1.1920357E0,3.690867E1,5.146342E0,1.4275912E0,2.1956944E0,2.3362494E0,5.2702155E0,1.1111013E1,1.7784848E0,1.3376403E0,7.3270706E1,8.75817E1,3.8806816E1,4.2547215E1,4.7061844E0,1.7129432E0,6.9141E0,1.2487605E1,1.4914699E1,2.9334478E0,2.4815329E1,7.258614E0,2.1440654E0,1.3741382E1,2.1863062E0,2.943287E1,3.9175613E1,1.9917004E1,4.6799484E1,1.7488884E0,1.3220253E0],"tree_param":{"num_deleted":"0","num_feature":"41","num_nodes":"93","size_leaf_vector":"1"}},{"base_weights":[1.6793343E-3,-5.420957E-1,2.9601195E-1,-9.2557675E-1,-3.3429092E-1,1.0379105E-1,6.5837306E-1,-9.597026E-1,1.5567896E-1,-1.6587618E-1,-8.6741245E-1,-4.656259E-2,4.1074947E-1,4.932017E-1,7.481655E-1,4.196901E-2,-9.785494E-1,2.1087015E-1,-1.4380863E-1,-4.037905E-2,-3.2462108E-1,-9.9903107E-1,4.1684487E-1,-2.8722972E-1,1.2194559E-1,5.215946E-1,-2.4183558E-1,5.315991E-1,-1.06771074E-1,9.498786E-1,6.402628E-1,-1.0098275E0,-5.8220726E-1,1.092281E-1,-3.2574487E-1,-3.0619687E-1,-8.118867E-2,-4.8552176E-1,4.3756473E-1,3.363443E-2,6.167463E-1,6.39784E-1,-2.8204048E-1,-9.6303874E-1,3.200501E-1,4.503187E-1,3.050472E-1,1.0593542E0,5.7771224E-1,5.625566E-1,9.141329E-1,-3.1356353E-1,-1.8538623E-1,-2.580821E-1,1.0262495E-1,-2.9236598E-2,2.809721E-1,1.396231E-1,-1.8024637E-1,2.0902063E-1,-1.92277E-1,-1.9480906E-2,1.644107E-1,2.292826E-1,-4.4397995E-2,2.184584E-1,-2.4041219E-1,-2.0026577E-1,1.849076E-1,-1.4308192E-1,-5.688572E-1,1.5400304E-1,-2.4355975E-1,3.305098E-1,6.0898755E-2,-1.8325053E-2,2.8646958E-1,1.9006012E-1,6.338397E-2,3.2072318E-1,-7.4545346E-2],"categories":[],"categories_nodes":[],"categories_segments":[],"categories_sizes":[],"default_left":[0,0,0,0,0,0,0,0,0,0,0,0,0,0,0,0,0,0,0,0,0,0,0,0,0,0,0,0,0,0,0,0,0,0,0,0,0,0,0,0,0,0,0,0,0,0,0,0,0,0,0,0,0,0,0,0,0,0,0,0,0,0,0,0,0,0,0,0,0,0,0,0,0,0,0,0,0,0,0,0,0],"id":5,"left_children":[1,3,5,7,9,11,13,15,17,19,21,23,25,27,29,-1,31,-1,-1,33,-1,35,-1,37,39,41,43,45,-1,47,49,51,53,55,-1,-1,-1,57,59,61,63,65,67,69,-1,71,-1,73,75,77,79,-1,-1,-1,-1,-1,-1,-1,-1,-1,-1,-1,-1,-1,-1,-1,-1,-1,-1,-1,-1,-1,-1,-1,-1,-1,-1,-1,-1,-1,-1],"loss_changes":[1.00255196E2,1.7220894E1,2.8239521E1,2.9812698E0,1.2806477E1,1.2329499E1,1.7173958E0,1.6816254E0,1.4519402E0,1.2701438E1,1.1603605E1,7.332217E0,6.4770613E0,1.9001474E0,1.3332863E0,0E0,3.2209015E-1,0E0,0E0,1.5529383E1,0E0,2.4479294E-1,0E0,1.0905282E1,4.634498E0,7.338867E0,1.3703687E1,1.5380545E0,0E0,5.7029915E-1,7.877598E-1,2.7864838E-1,2.2812216E0,1.4986078E1,0E0,0E0,0E0,6.73664E0,5.0607843E0,4.6730103E0,1.9269338E0,8.994114E0,3.9985335E0,3.2617712E0,0E0,4.007756E0,0E0,5.459709E-1,2.177502E0,1.1192245E0,2.4133272E0,0E0,0E0,0E0,0E0,0E0,0E0,0E0,0E0,0E0,0E0,0E0,0E0,0E0,0E0,0E0,0E0,0E0,0E0,0E0,0E0,0E0,0E0,0E0,0E0,0E0,0E0,0E0,0E0,0E0,0E0],"parents":[2147483647,0,0,1,1,2,2,3,3,4,4,5,5,6,6,7,7,8,8,9,9,10,10,11,11,12,12,13,13,14,14,16,16,19,19,21,21,23,23,24,24,25,25,26,26,27,27,29,29,30,30,31,31,32,32,33,33,37,37,38,38,39,39,40,40,41,41,42,42,43,43,45,45,47,47,48,48,49,49,50,50],"right_children":[2,4,6,8,10,12,14,16,18,20,22,24,26,28,30,-1,32,-1,-1,34,-1,36,-1,38,40,42,44,46,-1,48,50,52,54,56,-1,-1,-1,58,60,62,64,66,68,70,-1,72,-1,74,76,78,80,-1,-1,-1,-1,-1,-1,-1,-1,-1,-1,-1,-1,-1,-1,-1,-1,-1,-1,-1,-1,-1,-1,-1,-1,-1,-1,-1,-1,-1,-1],"split_conditions":[-5.652375E-1,-8.610876E-1,4.5791093E-1,6.6746206E0,1.7179252E0,1.4579693E0,8.77032E-1,-1.4797682E0,-3.244436E-1,2.3830123E0,3.2788298E0,-2.1761356E-1,2.8442373E0,2.611154E0,-2.3690589E-1,4.196901E-2,3.7142456E0,2.1087015E-1,-1.4380863E-1,2.8442373E0,-3.2462108E-1,5.248742E0,4.1684487E-1,7.190047E-1,2.6630464E0,2.3830123E0,9.056366E-2,5.312665E-1,-1.06771074E-1,1.7179252E0,8.623881E-1,2.8918138E0,-6.996415E-1,7.190047E-1,-3.2574487E-1,-3.0619687E-1,-8.118867E-2,-1.4089646E0,1.7179252E0,3.4719697E-1,1.9664046E0,5.248742E0,1.1768326E-1,-4.9965154E-2,3.200501E-1,3.9608532E-1,3.050472E-1,1.6647688E0,-2.2675943E-1,2.5374262E0,3.9864354E0,-3.1356353E-1,-1.8538623E-1,-2.580821E-1,1.0262495E-1,-2.9236598E-2,2.809721E-1,1.396231E-1,-1.8024637E-1,2.0902063E-1,-1.92277E-1,-1.9480906E-2,1.644107E-1,2.292826E-1,-4.4397995E-2,2.184584E-1,-2.4041219E-1,-2.0026577E-1,1.849076E-1,-1.4308192E-1,-5.688572E-1,1.5400304E-1,-2.4355975E-1,3.305098E-1,6.0898755E-2,-1.8325053E-2,2.8646958E-1,1.9006012E-1,6.338397E-2,3.2072318E-1,-7.4545346E-2],"split_indices":[6,6,6,37,29,25,6,0,2,35,39,6,31,2,7,0,33,0,0,31,0,10,0,5,20,35,6,2,0,29,7,30,5,5,0,0,0,5,29,2,9,10,6,6,0,2,0,5,5,23,28,0,0,0,0,0,0,0,0,0,0,0,0,0,0,0,0,0,0,0,0,0,0,0,0,0,0,0,0,0,0],"split_type":[0,0,0,0,0,0,0,0,0,0,0,0,0,0,0,0,0,0,0,0,0,0,0,0,0,0,0,0,0,0,0,0,0,0,0,0,0,0,0,0,0,0,0,0,0,0,0,0,0,0,0,0,0,0,0,0,0,0,0,0,0,0,0,0,0,0,0,0,0,0,0,0,0,0,0,0,0,0,0,0,0],"sum_hessian":[6.2439374E2,2.1898343E2,4.0541034E2,7.574684E1,1.4323657E2,2.657336E2,1.3967671E2,7.35383E1,2.2085476E0,1.0984678E2,3.3389797E1,1.7893594E2,8.679767E1,5.1477535E1,8.819918E1,1.1309572E0,7.240734E1,1.1289022E0,1.0796453E0,9.753134E1,1.2315437E1,3.207649E1,1.3133085E0,7.3399956E1,1.05535995E2,7.436679E1,1.24308815E1,4.9608135E1,1.8694004E0,2.8018436E1,6.0180744E1,6.567649E1,6.7308464E0,8.610484E1,1.1426503E1,3.0761988E1,1.3145024E0,5.7891815E1,1.5508139E1,9.045901E1,1.5076987E1,6.500979E1,9.357E0,8.1845255E0,4.2463565E0,4.414194E1,5.4661922E0,2.022318E1,7.795256E0,4.9258533E1,1.0922212E1,5.8708218E1,6.9682775E0,5.227461E0,1.5033851E0,6.959993E1,1.650491E1,5.9319043E0,5.195991E1,1.2788834E1,2.7193046E0,7.664574E1,1.3813276E1,1.26392975E1,2.4376907E0,6.1718273E1,3.2915154E0,6.727231E0,2.6297693E0,6.3748393E0,1.8096858E0,4.2607697E1,1.5342441E0,1.8997307E1,1.225874E0,3.2051425E0,4.5901136E0,4.0310158E1,8.948375E0,9.708762E0,1.21345E0],"tree_param":{"num_deleted":"0","num_feature":"41","num_nodes":"81","size_leaf_vector":"1"}},{"base_weights":[-7.544242E-4,-4.5276797E-1,2.3157246E-1,-7.958182E-1,-2.4765022E-1,8.800862E-2,5.918221E-1,-8.344231E-1,2.3585054E-1,5.3359892E-2,-5.196193E-1,1.7756908E-1,-2.6795366E-1,4.892662E-1,7.9365337E-1,-8.9441985E-1,-4.039014E-1,1.9868697E-1,-7.8679785E-2,2.0434545E-1,-2.969854E-1,-7.877038E-1,2.5475523E-2,7.444248E-1,1.0805605E-1,-7.458623E-1,-2.1240607E-2,3.5933667E-1,7.329241E-1,8.790094E-1,4.966594E-2,-9.562469E-1,-4.3896526E-1,-6.3786995E-1,1.1537567E-1,3.312154E-1,-2.7802822E-1,-8.3863235E-1,1.9371927E-1,-7.574593E-1,2.5243843E-1,8.3832186E-1,-1.7687885E-1,1.3770856E-1,-8.90983E-1,-8.739486E-1,2.0188971E-1,3.6827382E-1,-2.6728114E-1,4.0009862E-1,-1.674854E-1,9.33323E-1,-3.7112642E-2,9.30207E-1,-6.168355E-3,-1.7148265E-1,2.1580432E-1,-3.0600226E-1,-1.1559091E-1,-2.5557104E-1,1.7053698E-1,4.08179E-2,-2.5814342E-1,-1.5898217E-1,2.451661E-1,1.4490338E-1,-1.5868033E-1,-2.706753E-1,-4.922326E-2,4.0231314E-2,-3.1876335E-1,3.383737E-1,3.061724E-3,1.193321E-1,2.9299566E-1,4.384676E-3,-8.3947055E-2,2.7777413E-2,2.1272458E-1,1.6696923E-3,-3.455632E-1,6.5699436E-2,-3.0810884E-1,2.1598043E-1,-4.6700314E-2,-2.8876191E-2,-2.4593437E-1,4.8757013E-2,2.0107658E-1,3.2251382E-1,-1.0505889E-1,2.0295039E-1,-4.2697158E-1,2.8710184E-1,4.912668E-2],"categories":[],"categories_nodes":[],"categories_segments":[],"categories_sizes":[],"default_left":[0,0,0,0,0,0,0,0,0,0,0,0,0,0,0,0,0,0,0,0,0,0,0,0,0,0,0,0,0,0,0,0,0,0,0,0,0,0,0,0,0,0,0,0,0,0,0,0,0,0,0,0,0,0,0,0,0,0,0,0,0,0,0,0,0,0,0,0,0,0,0,0,0,0,0,0,0,0,0,0,0,0,0,0,0,0,0,0,0,0,0,0,0,0,0],"id":6,"left_children":[1,3,5,7,9,11,13,15,17,19,21,23,25,27,29,31,33,-1,-1,35,-1,37,39,41,43,45,47,49,51,53,55,57,59,61,63,65,-1,67,-1,69,71,73,75,77,79,81,-1,83,85,87,-1,89,91,93,-1,-1,-1,-1,-1,-1,-1,-1,-1,-1,-1,-1,-1,-1,-1,-1,-1,-1,-1,-1,-1,-1,-1,-1,-1,-1,-1,-1,-1,-1,-1,-1,-1,-1,-1,-1,-1,-1,-1,-1,-1],"loss_changes":[6.038846E1,1.3539856E1,1.959207E1,3.088192E0,1.0148273E1,8.743453E0,1.8483887E0,1.451992E0,8.955406E-1,9.588582E0,9.524187E0,8.530738E0,6.4962654E0,2.0875225E0,2.166294E0,1.2920532E0,1.3383213E0,0E0,0E0,7.8956976E0,0E0,3.7264957E0,4.1734204E0,2.1986656E0,5.924102E0,4.000226E0,3.6880662E0,2.1082997E0,3.8715582E0,1.4541721E0,2.342324E0,1.5245781E0,4.2758865E0,1.3798256E0,2.2810664E0,6.559969E0,0E0,1.6786575E0,0E0,1.580401E0,3.8319552E0,9.32951E-1,6.358406E-2,4.859524E0,1.3581185E0,3.1788864E0,0E0,2.8612113E0,2.1449878E0,3.0252948E0,0E0,3.972353E0,6.9930654E0,4.4927216E-1,0E0,0E0,0E0,0E0,0E0,0E0,0E0,0E0,0E0,0E0,0E0,0E0,0E0,0E0,0E0,0E0,0E0,0E0,0E0,0E0,0E0,0E0,0E0,0E0,0E0,0E0,0E0,0E0,0E0,0E0,0E0,0E0,0E0,0E0,0E0,0E0,0E0,0E0,0E0,0E0,0E0],"parents":[2147483647,0,0,1,1,2,2,3,3,4,4,5,5,6,6,7,7,8,8,9,9,10,10,11,11,12,12,13,13,14,14,15,15,16,16,19,19,21,21,22,22,23,23,24,24,25,25,26,26,27,27,28,28,29,29,30,30,31,31,32,32,33,33,34,34,35,35,37,37,39,39,40,40,41,41,42,42,43,43,44,44,45,45,47,47,48,48,49,49,51,51,52,52,53,53],"right_children":[2,4,6,8,10,12,14,16,18,20,22,24,26,28,30,32,34,-1,-1,36,-1,38,40,42,44,46,48,50,52,54,56,58,60,62,64,66,-1,68,-1,70,72,74,76,78,80,82,-1,84,86,88,-1,90,92,94,-1,-1,-1,-1,-1,-1,-1,-1,-1,-1,-1,-1,-1,-1,-1,-1,-1,-1,-1,-1,-1,-1,-1,-1,-1,-1,-1,-1,-1,-1,-1,-1,-1,-1,-1,-1,-1,-1,-1,-1,-1],"split_conditions":[-5.652375E-1,-8.388989E-1,5.368043E-1,6.6746206E0,8.8962203E-1,1.7179252E0,1.5090672E0,2.8918138E0,-1.6990393E-1,2.8442373E0,-2.0698033E-1,-1.0920117E0,-2.0528649E-1,1.5057136E0,2.8442373E0,2.678318E0,1.4579693E0,1.9868697E-1,-7.8679785E-2,2.3830123E0,-2.969854E-1,6.6746206E0,-7.871251E-1,3.118472E0,6.7926087E0,1.0017485E1,1.4797345E0,2.611154E0,1.9033068E0,5.750411E0,1.9033068E0,3.7142456E0,2.7917604E0,9.681601E-3,6.007842E-1,1.7179252E0,-2.7802822E-1,2.8918138E0,1.9371927E-1,-5.1037705E-1,-1.2907441E0,-8.1786203E-1,-1.3828291E0,1.6647688E0,-4.9866986E-1,-5.4304874E-1,2.0188971E-1,1.2952542E-1,-2.3895111E-2,-2.5914976E-1,-1.674854E-1,4.9657054E0,6.007842E-1,6.6746206E0,-6.168355E-3,-1.7148265E-1,2.1580432E-1,-3.0600226E-1,-1.1559091E-1,-2.5557104E-1,1.7053698E-1,4.08179E-2,-2.5814342E-1,-1.5898217E-1,2.451661E-1,1.4490338E-1,-1.5868033E-1,-2.706753E-1,-4.922326E-2,4.0231314E-2,-3.1876335E-1,3.383737E-1,3.061724E-3,1.193321E-1,2.9299566E-1,4.384676E-3,-8.3947055E-2,2.7777413E-2,2.1272458E-1,1.6696923E-3,-3.455632E-1,6.5699436E-2,-3.0810884E-1,2.1598043E-1,-4.6700314E-2,-2.8876191E-2,-2.4593437E-1,4.8757013E-2,2.0107658E-1,3.2251382E-1,-1.0505889E-1,2.0295039E-1,-4.2697158E-1,2.8710184E-1,4.912668E-2],"split_indices":[6,6,6,37,3,29,22,30,2,31,2,0,6,6,31,8,25,0,0,35,0,37,6,15,34,40,38,2,12,18,12,33,36,5,5,29,0,30,0,0,5,5,0,5,2,6,0,7,2,2,0,14,5,16,0,0,0,0,0,0,0,0,0,0,0,0,0,0,0,0,0,0,0,0,0,0,0,0,0,0,0,0,0,0,0,0,0,0,0,0,0,0,0,0,0],"split_type":[0,0,0,0,0,0,0,0,0,0,0,0,0,0,0,0,0,0,0,0,0,0,0,0,0,0,0,0,0,0,0,0,0,0,0,0,0,0,0,0,0,0,0,0,0,0,0,0,0,0,0,0,0,0,0,0,0,0,0,0,0,0,0,0,0,0,0,0,0,0,0,0,0,0,0,0,0,0,0,0,0,0,0,0,0,0,0,0,0,0,0,0,0,0,0],"sum_hessian":[5.7304816E2,1.9422214E2,3.7882605E2,7.159795E1,1.2262418E2,2.7176764E2,1.070584E2,6.91997E1,2.398251E0,5.8586063E1,6.4038124E1,2.175364E2,5.4231216E1,7.3258125E1,3.380028E1,5.9789955E1,9.409745E0,1.1145191E0,1.283732E0,5.188196E1,6.7040997E0,4.2628036E1,2.1410088E1,2.2701778E1,1.9483464E2,1.7775347E1,3.645587E1,4.9393837E1,2.386429E1,3.015875E1,3.6415305E0,5.1675556E1,8.1144E0,6.329505E0,3.08024E0,4.7285397E1,4.596567E0,4.156618E1,1.0618573E0,4.286374E0,1.7123713E1,2.0683805E1,2.0179732E0,1.9005574E2,4.7788897E0,1.6655764E1,1.1195827E0,1.3920729E1,2.2535143E1,4.7833015E1,1.5608215E0,1.8767956E1,5.096334E0,2.8502518E1,1.6562316E0,1.9650078E0,1.6765227E0,4.5776855E1,5.8986974E0,5.8648105E0,2.2495892E0,1.5007436E0,4.828761E0,1.73235E0,1.3478901E0,4.0565086E1,6.7203093E0,3.767539E1,3.8907917E0,1.2356927E0,3.0506814E0,2.9186938E0,1.4205019E1,5.868763E0,1.4815042E1,1.0055343E0,1.0124389E0,1.7722372E2,1.2832013E1,1.2977862E0,3.4811034E0,1.9933435E0,1.466242E1,8.106025E0,5.814704E0,1.8104946E1,4.4301963E0,2.6303423E1,2.1529593E1,1.7047983E1,1.7199728E0,3.702261E0,1.3940729E0,2.7299372E1,1.203146E0],"tree_param":{"num_deleted":"0","num_feature":"41","num_nodes":"95","size_leaf_vector":"1"}},{"base_weights":[-4.1703405E-3,-2.1430224E-1,3.4413028E-1,-7.0313746E-1,-1.0422371E-1,5.1911575E-1,2.0576769E-1,-7.424235E-1,2.1175577E-1,9.819155E-4,-5.883636E-1,7.2633207E-1,3.732355E-1,8.0816254E-2,4.9197945E-1,-8.105909E-1,-3.207238E-1,-7.6645366E-3,1.0787823E-1,7.612762E-2,-6.929584E-1,-7.0396966E-1,4.5047677E-1,8.347225E-1,1.6266711E-2,-2.210749E-2,5.435522E-1,-5.118234E-2,5.554453E-1,6.6965723E-1,2.251385E-1,-8.3827364E-1,3.490145E-2,-2.4965836E-1,-5.878631E-2,-6.796828E-2,5.3459483E-1,-9.953922E-1,-1.3827579E-1,-8.015014E-1,2.86374E-1,8.7729925E-1,-2.6769908E-2,-2.6193333E-1,5.054572E-1,-3.543364E-1,1.3264601E-1,4.164664E-1,3.1000328E-1,1.8574849E-1,-1.8571147E-1,8.920595E-2,9.0088904E-1,7.355607E-1,-3.391283E-2,4.3310717E-1,-5.907464E-1,-2.7373365E-1,-1.1025072E-1,5.9564542E-2,-2.5277066E-1,-4.6798263E-2,2.6993334E-1,1.6216159E-2,4.9274886E-1,-3.389146E-1,5.9437837E-2,1.7741382E-1,-2.1522123E-1,-2.901928E-1,-6.4650476E-2,2.702304E-1,4.5349047E-2,-8.210716E-2,2.6109585E-1,2.140335E-1,-6.860253E-2,6.6870816E-2,2.1032879E-1,9.669866E-2,-2.4190213E-1,-1.9786045E-1,-2.9701039E-3,-6.096592E-2,2.4718857E-1,3.4264773E-1,-5.089203E-3,3.3466768E-2,2.701602E-1,-6.7886055E-2,1.7274788E-1,6.73882E-2,-3.6592337E-1],"categories":[],"categories_nodes":[],"categories_segments":[],"categories_sizes":[],"default_left":[0,0,0,0,0,0,0,0,0,0,0,0,0,0,0,0,0,0,0,0,0,0,0,0,0,0,0,0,0,0,0,0,0,0,0,0,0,0,0,0,0,0,0,0,0,0,0,0,0,0,0,0,0,0,0,0,0,0,0,0,0,0,0,0,0,0,0,0,0,0,0,0,0,0,0,0,0,0,0,0,0,0,0,0,0,0,0,0,0,0,0,0,0],"id":7,"left_children":[1,3,5,7,9,11,13,15,17,19,21,23,25,27,29,31,33,-1,-1,35,37,39,-1,41,43,45,47,49,51,53,55,57,-1,-1,59,61,63,65,67,69,-1,71,-1,-1,73,-1,75,77,-1,79,81,83,85,87,-1,89,91,-1,-1,-1,-1,-1,-1,-1,-1,-1,-1,-1,-1,-1,-1,-1,-1,-1,-1,-1,-1,-1,-1,-1,-1,-1,-1,-1,-1,-1,-1,-1,-1,-1,-1,-1,-1],"loss_changes":[3.8935276E1,1.7780478E1,4.7399178E0,2.3428097E0,1.3853814E1,2.3810806E0,4.01739E0,1.4224358E0,1.2431796E-1,1.1755959E1,1.2788279E1,2.694872E0,3.6174407E0,5.05093E0,1.4744883E0,1.3735237E0,1.2638782E0,0E0,0E0,1.3473689E1,3.5575686E0,8.317705E0,0E0,1.2785435E0,2.9126868E0,3.2207417E0,1.9015245E0,2.0629275E0,2.7427278E0,1.1184807E0,2.836382E0,1.3549576E0,0E0,0E0,1.6913477E0,1.3399465E1,2.5867374E1,2.4832878E0,4.199322E0,4.128952E0,0E0,3.6245537E-1,0E0,0E0,1.4600354E0,0E0,3.514521E0,1.5747652E0,0E0,3.4506044E0,3.4165132E0,2.0087543E0,2.2246943E0,1.8190117E0,0E0,1.3251114E0,2.0752769E0,0E0,0E0,0E0,0E0,0E0,0E0,0E0,0E0,0E0,0E0,0E0,0E0,0E0,0E0,0E0,0E0,0E0,0E0,0E0,0E0,0E0,0E0,0E0,0E0,0E0,0E0,0E0,0E0,0E0,0E0,0E0,0E0,0E0,0E0,0E0,0E0],"parents":[2147483647,0,0,1,1,2,2,3,3,4,4,5,5,6,6,7,7,8,8,9,9,10,10,11,11,12,12,13,13,14,14,15,15,16,16,19,19,20,20,21,21,23,23,24,24,25,25,26,26,27,27,28,28,29,29,30,30,31,31,34,34,35,35,36,36,37,37,38,38,39,39,41,41,44,44,46,46,47,47,49,49,50,50,51,51,52,52,53,53,55,55,56,56],"right_children":[2,4,6,8,10,12,14,16,18,20,22,24,26,28,30,32,34,-1,-1,36,38,40,-1,42,44,46,48,50,52,54,56,58,-1,-1,60,62,64,66,68,70,-1,72,-1,-1,74,-1,76,78,-1,80,82,84,86,88,-1,90,92,-1,-1,-1,-1,-1,-1,-1,-1,-1,-1,-1,-1,-1,-1,-1,-1,-1,-1,-1,-1,-1,-1,-1,-1,-1,-1,-1,-1,-1,-1,-1,-1,-1,-1,-1,-1],"split_conditions":[1.8086218E-3,-8.388989E-1,8.6627465E-1,6.6746206E0,1.7179252E0,-2.3690589E-1,9.2880577E-1,2.8918138E0,-8.8820726E-1,2.8442373E0,3.2788298E0,3.2788298E0,3.1245127E-1,4.9595675E-1,4.5901412E-1,5.750411E0,-9.572389E-1,-7.6645366E-3,1.0787823E-1,7.190047E-1,-2.5212944E-1,1.0017485E1,4.5047677E-1,2.1350667E0,3.6434314E-1,-1.4089646E0,8.623881E-1,8.8962203E-1,-3.9334664E-1,4.9657054E0,1.9033068E0,2.678318E0,3.490145E-2,-2.4965836E-1,1.4283278E0,2.7917604E0,1.4797345E0,2.6630464E0,-3.4497994E-1,-2.0528649E-1,2.86374E-1,4.9657054E0,-2.6769908E-2,-2.6193333E-1,-1.5940443E-1,-3.543364E-1,-3.4497994E-1,-2.3421344E-1,3.1000328E-1,7.6115733E-1,-6.996415E-1,1.1918868E0,6.008258E-1,-9.3608254E-1,-3.391283E-2,6.5289235E-1,6.007842E-1,-2.7373365E-1,-1.1025072E-1,5.9564542E-2,-2.5277066E-1,-4.6798263E-2,2.6993334E-1,1.6216159E-2,4.9274886E-1,-3.389146E-1,5.9437837E-2,1.7741382E-1,-2.1522123E-1,-2.901928E-1,-6.4650476E-2,2.702304E-1,4.5349047E-2,-8.210716E-2,2.6109585E-1,2.140335E-1,-6.860253E-2,6.6870816E-2,2.1032879E-1,9.669866E-2,-2.4190213E-1,-1.9786045E-1,-2.9701039E-3,-6.096592E-2,2.4718857E-1,3.4264773E-1,-5.089203E-3,3.3466768E-2,2.701602E-1,-6.7886055E-2,1.7274788E-1,6.73882E-2,-3.6592337E-1],"split_indices":[6,6,21,37,29,7,6,30,6,31,39,39,6,7,0,18,6,0,0,5,6,40,0,2,5,5,7,3,2,14,12,8,0,0,5,36,38,20,5,6,0,14,0,0,2,0,5,2,0,6,5,5,2,5,0,0,5,0,0,0,0,0,0,0,0,0,0,0,0,0,0,0,0,0,0,0,0,0,0,0,0,0,0,0,0,0,0,0,0,0,0,0,0],"split_type":[0,0,0,0,0,0,0,0,0,0,0,0,0,0,0,0,0,0,0,0,0,0,0,0,0,0,0,0,0,0,0,0,0,0,0,0,0,0,0,0,0,0,0,0,0,0,0,0,0,0,0,0,0,0,0,0,0,0,0,0,0,0,0,0,0,0,0,0,0,0,0,0,0,0,0,0,0,0,0,0,0,0,0,0,0,0,0,0,0,0,0,0,0],"sum_hessian":[5.299745E2,3.30791E2,1.9918352E2,5.980815E1,2.7098282E2,8.673674E1,1.1244677E2,5.7526447E1,2.2817042E0,2.2342879E2,4.7554043E1,3.419101E1,5.2545734E1,7.9167145E1,3.3279625E1,4.8727486E1,8.798963E0,1.1933585E0,1.0883456E0,2.0240135E2,2.1027428E1,4.5689865E1,1.8641777E0,2.9510689E1,4.6803207E0,1.6083218E1,3.6462517E1,6.2638874E1,1.6528269E1,1.9071302E1,1.42083235E1,4.7407314E1,1.320173E0,2.2426984E0,6.556264E0,1.546475E2,4.775385E1,1.3093716E1,7.933712E0,4.3640324E1,2.0495427E0,2.8258986E1,1.251704E0,1.3823385E0,3.2979822E0,1.1132612E0,1.4969956E1,3.041981E1,6.0427065E0,2.254761E1,4.0091263E1,7.569749E0,8.958521E0,1.7645754E1,1.4255488E0,1.169614E1,2.5121841E0,4.0144245E1,7.263069E0,5.497862E0,1.0584018E0,1.425225E2,1.2125003E1,3.4038696E1,1.3715151E1,1.1817219E1,1.2764968E0,3.5012558E0,4.432456E0,3.350845E1,1.0131873E1,2.714128E1,1.1177058E0,1.1315292E0,2.166453E0,5.3675084E0,9.602448E0,1.9167793E1,1.1252016E1,2.0412529E1,2.1350813E0,1.0105324E1,2.998594E1,5.932207E0,1.6375418E0,6.9003024E0,2.0582185E0,4.0401716E0,1.3605581E1,1.976896E0,9.719244E0,1.3739746E0,1.1382096E0],"tree_param":{"num_deleted":"0","num_feature":"41","num_nodes":"93","size_leaf_vector":"1"}},{"base_weights":[-2.0293978E-3,-4.7431645E-1,1.0156401E-1,-5.1647866E-1,2.6740786E-1,1.8188365E-2,4.30473E-1,-8.2365924E-1,-3.6326373E-1,4.2518854E-2,-9.936114E-1,6.7247045E-1,3.1189552E-1,-9.4095284E-1,-5.261992E-1,-4.1927946E-1,2.9245633E-1,4.2241085E-1,-1.9519532E-2,-3.5947493E-1,4.577517E-2,8.298416E-1,5.6275513E-2,3.6010227E-1,-2.4926704E-1,-3.106069E-1,-2.79754E-1,-2.7637777E-1,3.552113E-2,-1.5781675E-1,-6.810738E-1,5.56056E-1,-1.3356967E-1,5.9555605E-2,-3.284316E-1,2.7923357E-1,4.2548758E-1,-4.3509048E-1,2.1973985E-1,2.8423336E-1,2.7460256E-1,-7.1401507E-1,1.9259252E-1,1.1148613E-1,-2.0639272E-1,1.813182E-1,-9.076306E-2,-1.5622863E-1,9.183662E-2,-2.2356144E-1,3.9442122E-2,-6.980415E-2,1.8930909E-1,7.992673E-2,-3.3176914E-1,6.400968E-2,-2.6698956E-2,-2.784582E-1,-4.4960406E-2,1.943748E-1,-4.0663153E-2,5.908982E-2,-3.792821E-1,5.8220457E-2,1.7433304E-1,3.020419E-2,-3.1772768E-1],"categories":[],"categories_nodes":[],"categories_segments":[],"categories_sizes":[],"default_left":[0,0,0,0,0,0,0,0,0,0,0,0,0,0,0,0,0,0,0,0,0,0,0,0,0,0,0,0,0,0,0,0,0,0,0,0,0,0,0,0,0,0,0,0,0,0,0,0,0,0,0,0,0,0,0,0,0,0,0,0,0,0,0,0,0,0,0],"id":8,"left_children":[1,3,5,7,-1,9,11,13,15,17,19,21,23,25,27,29,-1,31,33,-1,-1,35,37,39,41,-1,43,-1,45,47,49,51,53,55,57,-1,59,61,-1,63,-1,65,-1,-1,-1,-1,-1,-1,-1,-1,-1,-1,-1,-1,-1,-1,-1,-1,-1,-1,-1,-1,-1,-1,-1,-1,-1],"loss_changes":[2.4395206E1,5.624935E0,1.12064705E1,3.8255768E0,0E0,8.099165E0,2.1620722E0,4.9494743E-1,4.9258533E0,7.5630894E0,1.9950852E0,2.5052538E0,1.640863E0,9.0151596E-1,2.3170528E0,3.899663E0,0E0,3.4212313E0,6.774008E0,0E0,0E0,4.565773E-1,2.453934E0,1.9813738E0,2.581966E0,0E0,1.2539937E0,0E0,1.1854435E0,5.3104677E0,1.6065826E0,2.3057547E0,4.0032425E0,5.0686536E0,5.912784E0,0E0,8.3843684E-1,2.5284195E0,0E0,1.1791742E0,0E0,1.1870724E0,0E0,0E0,0E0,0E0,0E0,0E0,0E0,0E0,0E0,0E0,0E0,0E0,0E0,0E0,0E0,0E0,0E0,0E0,0E0,0E0,0E0,0E0,0E0,0E0,0E0],"parents":[2147483647,0,0,1,1,2,2,3,3,5,5,6,6,7,7,8,8,9,9,10,10,11,11,12,12,13,13,14,14,15,15,17,17,18,18,21,21,22,22,23,23,24,24,26,26,28,28,29,29,30,30,31,31,32,32,33,33,34,34,36,36,37,37,39,39,41,41],"right_children":[2,4,6,8,-1,10,12,14,16,18,20,22,24,26,28,30,-1,32,34,-1,-1,36,38,40,42,-1,44,-1,46,48,50,52,54,56,58,-1,60,62,-1,64,-1,66,-1,-1,-1,-1,-1,-1,-1,-1,-1,-1,-1,-1,-1,-1,-1,-1,-1,-1,-1,-1,-1,-1,-1,-1,-1],"split_conditions":[-7.476784E-1,2.785553E0,5.7378554E-1,-9.1532683E-1,2.6740786E-1,6.7926087E0,-2.3690589E-1,1.4579693E0,1.0017485E1,-9.950726E-1,8.467706E-1,9.437097E-1,3.2788298E0,3.9864354E0,-9.5970434E-1,-1.2262057E-1,2.9245633E-1,-2.3895111E-2,1.9664046E0,-3.5947493E-1,4.577517E-2,1.9664046E0,1.1531588E0,2.678318E0,2.5631058E-1,-3.106069E-1,-1.0139436E0,-2.7637777E-1,-4.2418897E-1,-3.1558463E-1,6.6746206E0,-5.665886E-1,-1.0920117E0,8.8962203E-1,-4.9112335E-1,2.7923357E-1,1.4194239E0,3.4836527E-2,2.1973985E-1,6.9616154E-2,2.7460256E-1,-3.7366006E-1,1.9259252E-1,1.1148613E-1,-2.0639272E-1,1.813182E-1,-9.076306E-2,-1.5622863E-1,9.183662E-2,-2.2356144E-1,3.9442122E-2,-6.980415E-2,1.8930909E-1,7.992673E-2,-3.3176914E-1,6.400968E-2,-2.6698956E-2,-2.784582E-1,-4.4960406E-2,1.943748E-1,-4.0663153E-2,5.908982E-2,-3.792821E-1,5.8220457E-2,1.7433304E-1,3.020419E-2,-3.1772768E-1],"split_indices":[6,0,6,6,0,34,7,25,40,0,0,0,39,28,6,0,0,2,9,0,0,9,6,8,2,0,6,0,2,2,37,2,0,3,2,0,6,2,0,2,0,2,0,0,0,0,0,0,0,0,0,0,0,0,0,0,0,0,0,0,0,0,0,0,0,0,0],"split_type":[0,0,0,0,0,0,0,0,0,0,0,0,0,0,0,0,0,0,0,0,0,0,0,0,0,0,0,0,0,0,0,0,0,0,0,0,0,0,0,0,0,0,0,0,0,0,0,0,0,0,0,0,0,0,0,0,0,0,0,0,0,0,0,0,0,0,0],"sum_hessian":[4.9663156E2,8.869382E1,4.0793774E2,8.6640785E1,2.0530293E0,3.2628305E2,8.165469E1,2.7376942E1,5.9263844E1,3.1955673E2,6.7263217E0,2.531656E1,5.6338135E1,1.808315E1,9.293792E0,5.754172E1,1.7221227E0,4.4044064E1,2.7551266E2,5.668813E0,1.0575083E0,1.9890076E1,5.4264846E0,5.2211216E1,4.1269207E0,1.5328699E1,2.754451E0,5.0805535E0,4.2132387E0,2.9591015E1,2.7950706E1,3.550849E1,8.535574E0,2.2000351E2,5.5509163E1,1.4875011E1,5.0150642E0,3.3492494E0,2.0772352E0,4.7264786E1,4.946431E0,2.8431716E0,1.2837492E0,1.0957268E0,1.6587243E0,1.2768441E0,2.9363945E0,1.6533873E1,1.3057143E1,2.5982864E1,1.9678413E0,2.8997164E0,3.2608776E1,6.562085E0,1.9734889E0,1.0787454E2,1.1212896E2,1.1771784E1,4.3737377E1,3.4803627E0,1.5347016E0,2.3331954E0,1.0160538E0,3.7522446E1,9.742337E0,1.0566814E0,1.7864902E0],"tree_param":{"num_deleted":"0","num_feature":"41","num_nodes":"67","size_leaf_vector":"1"}},{"base_weights":[-2.6778863E-3,-1.4675856E-1,2.3841412E-1,-6.226349E-2,-5.75828E-1,1.8491578E-1,6.2305534E-1,1.1312406E-2,-5.9801584E-1,-6.7129606E-1,9.697502E-1,3.398193E-1,6.998529E-2,1.7563063E-1,8.6683893E-1,9.027104E-2,-6.410997E-1,-8.6643094E-1,-9.2198245E-2,-7.4148417E-1,5.481398E-1,4.014492E-1,3.4588665E-2,5.6918156E-1,1.6908541E-1,1.577029E-1,-3.106343E-1,-1.8705523E-1,5.092647E-1,1.0346214E0,-2.4283176E-2,-5.6116614E-2,5.7972115E-1,-9.194084E-1,-1.745319E-1,-2.2475494E-1,-9.475948E-1,-5.710689E-1,3.7993878E-1,-9.051465E-1,-1.4436541E-1,2.0659944E-1,4.3512527E-2,6.3727695E-1,-1.342053E-1,-4.2776397E-1,3.093486E-1,-1.9999608E-2,3.4812778E-1,-8.361376E-1,1.3111578E-1,8.8057476E-1,-1.4418271E-1,3.3253872E-1,8.125286E-2,3.8071506E-2,-1.3717857E-1,2.5738642E-1,-3.2601634E-1,-3.1286454E-1,-4.210282E-2,-1.7505722E-1,1.9336772E-1,-1.8674573E-1,9.1686174E-2,-4.7369804E-2,-2.9846528E-1,7.421218E-2,-2.3860778E-1,2.7376866E-1,-2.1588416E-1,-1.0209497E-1,-2.7736697E-1,6.486509E-2,-1.745395E-1,2.186499E-1,3.7003003E-2,-2.9797938E-1,7.933046E-3,1.7811026E-1,4.0564194E-2,2.3214766E-1,-5.774411E-2,-5.0973643E-2,1.6589743E-1,-3.6923906E-1,-3.520852E-2,1.4689071E-1,-2.3722014E-1,3.0456918E-1,5.3270385E-2],"categories":[],"categories_nodes":[],"categories_segments":[],"categories_sizes":[],"default_left":[0,0,0,0,0,0,0,0,0,0,0,0,0,0,0,0,0,0,0,0,0,0,0,0,0,0,0,0,0,0,0,0,0,0,0,0,0,0,0,0,0,0,0,0,0,0,0,0,0,0,0,0,0,0,0,0,0,0,0,0,0,0,0,0,0,0,0,0,0,0,0,0,0,0,0,0,0,0,0,0,0,0,0,0,0,0,0,0,0,0,0],"id":9,"left_children":[1,3,5,7,9,11,13,15,17,19,21,23,25,27,29,31,33,35,37,39,41,-1,-1,43,45,47,49,-1,51,53,-1,55,57,59,61,63,65,67,69,71,73,-1,-1,75,-1,77,79,81,83,85,87,89,-1,-1,-1,-1,-1,-1,-1,-1,-1,-1,-1,-1,-1,-1,-1,-1,-1,-1,-1,-1,-1,-1,-1,-1,-1,-1,-1,-1,-1,-1,-1,-1,-1,-1,-1,-1,-1,-1,-1],"loss_changes":[1.659279E1,1.0803427E1,3.561736E0,9.897277E0,7.891268E0,2.7942796E0,2.1815386E0,1.1473015E1,4.036068E0,4.412491E0,8.73091E-1,2.5337868E0,3.1249008E0,2.6639106E0,2.2457714E0,1.4258394E1,2.9620018E0,8.123255E-1,2.846233E0,4.235998E0,7.698125E-2,0E0,0E0,2.2397022E0,3.4746041E0,2.563053E0,4.1934805E0,0E0,2.9074254E0,3.5532856E-1,0E0,1.1345975E1,2.2167797E1,1.2799883E0,3.7994707E0,9.330822E-1,4.839306E-1,1.3299053E0,4.4377646E0,6.77681E-2,1.8296193E0,0E0,0E0,1.1747608E0,0E0,2.085393E0,1.5491462E0,5.6283813E0,3.96947E0,2.1731386E0,3.8317013E0,3.1843805E-1,0E0,0E0,0E0,0E0,0E0,0E0,0E0,0E0,0E0,0E0,0E0,0E0,0E0,0E0,0E0,0E0,0E0,0E0,0E0,0E0,0E0,0E0,0E0,0E0,0E0,0E0,0E0,0E0,0E0,0E0,0E0,0E0,0E0,0E0,0E0,0E0,0E0,0E0,0E0],"parents":[2147483647,0,0,1,1,2,2,3,3,4,4,5,5,6,6,7,7,8,8,9,9,10,10,11,11,12,12,13,13,14,14,15,15,16,16,17,17,18,18,19,19,20,20,23,23,24,24,25,25,26,26,28,28,29,29,31,31,32,32,33,33,34,34,35,35,36,36,37,37,38,38,39,39,40,40,43,43,45,45,46,46,47,47,48,48,49,49,50,50,51,51],"right_children":[2,4,6,8,10,12,14,16,18,20,22,24,26,28,30,32,34,36,38,40,42,-1,-1,44,46,48,50,-1,52,54,-1,56,58,60,62,64,66,68,70,72,74,-1,-1,76,-1,78,80,82,84,86,88,90,-1,-1,-1,-1,-1,-1,-1,-1,-1,-1,-1,-1,-1,-1,-1,-1,-1,-1,-1,-1,-1,-1,-1,-1,-1,-1,-1,-1,-1,-1,-1,-1,-1,-1,-1,-1,-1,-1,-1],"split_conditions":[1.8086218E-3,1.7179252E0,8.623881E-1,2.3830123E0,3.2788298E0,8.6627465E-1,6.738612E-1,2.8442373E0,-2.7185276E-1,1.0017485E1,-4.134379E-1,-2.3690589E-1,8.372252E-1,-4.8062384E-1,5.7851434E-1,6.007842E-1,-2.940415E-1,6.738612E-1,9.7755814E-1,-2.0528649E-1,2.6513588E-1,4.014492E-1,3.4588665E-2,2.1350667E0,1.6699162E-1,-2.9622617E-1,1.4283278E0,-1.8705523E-1,1.4579693E0,1.4284053E0,-2.4283176E-2,1.2790212E-1,6.7926087E0,1.4284053E0,8.623881E-1,8.8962203E-1,-5.8922815E-1,-1.929594E-1,2.678318E0,-1.5271851E0,-1.2262057E-1,2.0659944E-1,4.3512527E-2,3.2788298E0,-1.342053E-1,-9.950726E-1,-4.2615762E-1,-7.042552E-1,-2.1955968E-1,4.5791093E-1,2.5374262E0,8.372252E-1,-1.4418271E-1,3.3253872E-1,8.125286E-2,3.8071506E-2,-1.3717857E-1,2.5738642E-1,-3.2601634E-1,-3.1286454E-1,-4.210282E-2,-1.7505722E-1,1.9336772E-1,-1.8674573E-1,9.1686174E-2,-4.7369804E-2,-2.9846528E-1,7.421218E-2,-2.3860778E-1,2.7376866E-1,-2.1588416E-1,-1.0209497E-1,-2.7736697E-1,6.486509E-2,-1.745395E-1,2.186499E-1,3.7003003E-2,-2.9797938E-1,7.933046E-3,1.7811026E-1,4.0564194E-2,2.3214766E-1,-5.774411E-2,-5.0973643E-2,1.6589743E-1,-3.6923906E-1,-3.520852E-2,1.4689071E-1,-2.3722014E-1,3.0456918E-1,5.3270385E-2],"split_indices":[6,29,7,35,39,21,27,31,6,40,0,7,5,2,2,5,6,27,24,6,0,0,0,2,6,2,5,0,25,0,0,5,34,0,7,3,2,6,8,5,0,0,0,39,0,0,2,0,0,6,23,5,0,0,0,0,0,0,0,0,0,0,0,0,0,0,0,0,0,0,0,0,0,0,0,0,0,0,0,0,0,0,0,0,0,0,0,0,0,0,0],"split_type":[0,0,0,0,0,0,0,0,0,0,0,0,0,0,0,0,0,0,0,0,0,0,0,0,0,0,0,0,0,0,0,0,0,0,0,0,0,0,0,0,0,0,0,0,0,0,0,0,0,0,0,0,0,0,0,0,0,0,0,0,0,0,0,0,0,0,0,0,0,0,0,0,0,0,0,0,0,0,0,0,0,0,0,0,0,0,0,0,0,0,0],"sum_hessian":[4.7566592E2,2.9797955E2,1.7768636E2,2.4991069E2,4.806888E1,1.5729018E2,2.039617E1,2.2059486E2,2.931583E1,4.580522E1,2.2636542E0,6.6161224E1,9.112896E1,7.8003473E0,1.2595822E1,1.975481E2,2.3046762E1,1.8686693E1,1.0629137E1,4.3682877E1,2.1223474E0,1.1861296E0,1.0775245E0,2.7237244E1,3.8923977E1,7.4536865E1,1.65921E1,2.0415034E0,5.758844E0,1.0623552E1,1.9722698E0,1.527485E2,4.4799587E1,1.3827846E1,9.218918E0,2.521448E0,1.6165245E1,5.17291E0,5.456227E0,3.3880756E1,9.802119E0,1.0484241E0,1.0739232E0,2.5876892E1,1.360351E0,7.0167046E0,3.1907272E1,3.901937E1,3.551749E1,7.1699657E0,9.422133E0,4.2682166E0,1.4906273E0,9.27552E0,1.3480321E0,1.053613E2,4.738721E1,3.8805653E1,5.993935E0,1.16438E1,2.1840458E0,6.340531E0,2.8783867E0,1.341661E0,1.1797869E0,1.1584833E0,1.5006762E1,1.090548E0,4.082362E0,3.7902768E0,1.66595E0,1.7413307E0,3.2139427E1,5.650249E0,4.15187E0,2.1609133E1,4.26776E0,2.5968041E0,4.4199E0,1.1203364E1,2.0703909E1,6.342449E0,3.267692E1,1.0113648E1,2.5403843E1,4.1687E0,3.0012655E0,7.121385E0,2.3007488E0,3.2093613E0,1.0588553E0],"tree_param":{"num_deleted":"0","num_feature":"41","num_nodes":"91","size_leaf_vector":"1"}},{"base_weights":[-4.508375E-3,-2.4752773E-1,1.0214443E-1,-8.244945E-2,-6.5158373E-1,4.5241714E-2,3.2945615E-1,-7.696242E-1,1.2144468E-2,-7.6811284E-1,-5.269462E-3,-2.3866314E-2,2.9429168E-1,2.5117198E-1,7.011393E-1,2.2052417E-2,-2.581612E-1,7.609445E-2,-8.207799E-1,-8.2866037E-1,1.1892169E-1,5.665652E-1,-7.041269E-1,-5.02712E-2,7.348861E-1,6.489334E-1,1.1004151E-1,3.313373E-1,-8.2822144E-2,2.9808664E-1,2.755088E-1,-6.5936305E-2,7.080597E-1,-2.7297723E-1,-6.725737E-2,-9.553202E-1,-1.6236797E-1,-2.2566875E-3,2.8668746E-1,-5.338322E-2,-2.5649709E-1,-7.181292E-2,8.305841E-1,9.236884E-3,9.156638E-1,1.1276366E0,2.715372E-1,-1.7085537E-1,4.9099377E-1,3.138799E-2,5.4429334E-1,-6.321896E-1,3.731263E-1,2.1479358E-1,-1.9161548E-1,2.7057528E-2,-2.036195E-1,6.0167883E-2,3.6072838E-1,-3.0606613E-1,-6.1762393E-2,1.3794972E-1,-2.187028E-1,-2.7013136E-2,2.7335954E-1,7.877694E-2,2.830776E-1,3.3696455E-1,3.682093E-2,3.2024104E-2,3.8111246E-1,2.1344417E-1,-1.7894952E-2,-1.1527069E-1,9.016858E-2,2.5702608E-1,6.272842E-2,1.01797424E-1,-2.5441414E-1,1.0234196E-1,2.8537643E-1,-3.7918824E-1,9.896034E-3,-5.049338E-2,2.4796873E-1,3.643961E-2,-1.2819582E-1],"categories":[],"categories_nodes":[],"categories_segments":[],"categories_sizes":[],"default_left":[0,0,0,0,0,0,0,0,0,0,0,0,0,0,0,0,0,0,0,0,0,0,0,0,0,0,0,0,0,0,0,0,0,0,0,0,0,0,0,0,0,0,0,0,0,0,0,0,0,0,0,0,0,0,0,0,0,0,0,0,0,0,0,0,0,0,0,0,0,0,0,0,0,0,0,0,0,0,0,0,0,0,0,0,0,0,0],"id":10,"left_children":[1,3,5,7,9,11,13,15,17,19,21,23,25,27,29,-1,-1,31,33,35,-1,37,39,41,43,45,47,49,51,53,-1,55,57,-1,-1,59,61,-1,-1,-1,-1,63,65,-1,67,69,71,73,75,77,79,81,83,-1,85,-1,-1,-1,-1,-1,-1,-1,-1,-1,-1,-1,-1,-1,-1,-1,-1,-1,-1,-1,-1,-1,-1,-1,-1,-1,-1,-1,-1,-1,-1,-1,-1],"loss_changes":[1.1656709E1,9.095586E0,4.0284224E0,6.4139156E0,2.981512E0,4.3300085E0,1.6402941E0,9.7828007E-1,4.728012E0,2.6960926E0,3.221273E0,3.994573E0,3.4984317E0,1.4498086E0,6.2825775E-1,0E0,0E0,7.4302416E0,1.3266516E-1,2.5659466E0,0E0,9.98502E-1,1.3554394E-1,3.6996636E0,8.255377E-1,3.031506E0,4.0600553E0,2.7321873E0,3.0119102E0,1.1785269E0,0E0,6.5747414E0,3.567432E0,0E0,0E0,1.0977669E0,2.575764E0,0E0,0E0,0E0,0E0,3.454304E0,5.1267385E-2,0E0,7.3473597E-1,1.0049667E0,1.739563E0,2.341496E0,1.473489E0,5.4146175E0,1.7514105E0,2.3099613E0,1.780364E0,0E0,2.830171E-1,0E0,0E0,0E0,0E0,0E0,0E0,0E0,0E0,0E0,0E0,0E0,0E0,0E0,0E0,0E0,0E0,0E0,0E0,0E0,0E0,0E0,0E0,0E0,0E0,0E0,0E0,0E0,0E0,0E0,0E0,0E0,0E0],"parents":[2147483647,0,0,1,1,2,2,3,3,4,4,5,5,6,6,7,7,8,8,9,9,10,10,11,11,12,12,13,13,14,14,17,17,18,18,19,19,21,21,22,22,23,23,24,24,25,25,26,26,27,27,28,28,29,29,31,31,32,32,35,35,36,36,41,41,42,42,44,44,45,45,46,46,47,47,48,48,49,49,50,50,51,51,52,52,54,54],"right_children":[2,4,6,8,10,12,14,16,18,20,22,24,26,28,30,-1,-1,32,34,36,-1,38,40,42,44,46,48,50,52,54,-1,56,58,-1,-1,60,62,-1,-1,-1,-1,64,66,-1,68,70,72,74,76,78,80,82,84,-1,86,-1,-1,-1,-1,-1,-1,-1,-1,-1,-1,-1,-1,-1,-1,-1,-1,-1,-1,-1,-1,-1,-1,-1,-1,-1,-1,-1,-1,-1,-1,-1,-1],"split_conditions":[-5.652375E-1,1.2952542E-1,6.7240226E-1,-4.9866986E-1,3.7142456E0,1.9033068E0,2.3969615E0,-1.5271851E0,1.4283278E0,6.6746206E0,8.623881E-1,6.6746206E0,-2.79249E-1,2.5374262E0,8.8962203E-1,2.2052417E-2,-2.581612E-1,7.190047E-1,1.9033068E0,2.8918138E0,1.1892169E-1,-1.2907441E0,-3.7661305E-1,2.1069791E0,-1.2907441E0,-5.1037705E-1,1.3494119E-1,-2.2675943E-1,1.9664046E0,8.6627465E-1,2.755088E-1,1.4797345E0,1.5090672E0,-2.7297723E-1,-6.725737E-2,1.1635339E0,8.6627465E-1,-2.2566875E-3,2.8668746E-1,-5.338322E-2,-2.5649709E-1,6.6746206E0,-4.1467378E-1,9.236884E-3,1.4283278E0,-4.862017E-1,-5.8142096E-1,1.2952542E-1,8.6627465E-1,1.7179252E0,1.4797345E0,1.1334355E0,-3.621762E-1,2.1479358E-1,-3.7890983E-1,2.7057528E-2,-2.036195E-1,6.0167883E-2,3.6072838E-1,-3.0606613E-1,-6.1762393E-2,1.3794972E-1,-2.187028E-1,-2.7013136E-2,2.7335954E-1,7.877694E-2,2.830776E-1,3.3696455E-1,3.682093E-2,3.2024104E-2,3.8111246E-1,2.1344417E-1,-1.7894952E-2,-1.1527069E-1,9.016858E-2,2.5702608E-1,6.272842E-2,1.01797424E-1,-2.5441414E-1,1.0234196E-1,2.8537643E-1,-3.7918824E-1,9.896034E-3,-5.049338E-2,2.4796873E-1,3.643961E-2,-1.2819582E-1],"split_indices":[6,7,6,2,33,12,4,5,5,37,7,16,6,23,3,0,0,5,12,30,0,5,2,0,5,0,6,5,9,21,0,38,22,0,0,2,21,0,0,0,0,37,2,0,5,2,5,7,21,29,38,6,2,0,2,0,0,0,0,0,0,0,0,0,0,0,0,0,0,0,0,0,0,0,0,0,0,0,0,0,0,0,0,0,0,0,0],"split_type":[0,0,0,0,0,0,0,0,0,0,0,0,0,0,0,0,0,0,0,0,0,0,0,0,0,0,0,0,0,0,0,0,0,0,0,0,0,0,0,0,0,0,0,0,0,0,0,0,0,0,0,0,0,0,0,0,0,0,0,0,0,0,0,0,0,0,0,0,0,0,0,0,0,0,0,0,0,0,0,0,0,0,0,0,0,0,0],"sum_hessian":[4.4776578E2,1.3616925E2,3.115965E2,9.752797E1,3.864129E1,2.5017058E2,6.1425926E1,1.0937408E1,8.659056E1,3.2578926E1,6.0623646E0,1.9653807E2,5.363251E1,5.2123425E1,9.302503E0,1.0832007E0,9.854207E0,8.126023E1,5.330328E0,3.1242905E1,1.3360219E0,3.4383001E0,2.6240644E0,1.9083083E2,5.7072425E0,1.7474962E1,3.615755E1,4.2040752E1,1.0082674E1,4.0885525E0,5.2139497E0,6.7080025E1,1.4180205E1,4.180459E0,1.1498688E0,2.5887917E1,5.354986E0,1.7850245E0,1.6532757E0,1.0703591E0,1.5537055E0,1.8717192E2,3.6589022E0,1.4050691E0,4.3021736E0,6.8271785E0,1.0647784E1,2.1129282E1,1.5028268E1,1.7931526E1,2.4109224E1,4.3975616E0,5.685112E0,1.9567078E0,2.1318445E0,5.413924E1,1.29407835E1,7.690801E0,6.4894047E0,2.3492245E1,2.3956735E0,2.6422067E0,2.7127798E0,1.8465572E2,2.5162134E0,1.1587076E0,2.5001945E0,3.079549E0,1.2226244E0,1.0518693E0,5.7753096E0,4.079874E0,6.5679097E0,1.4672791E1,6.4564915E0,5.653593E0,9.374675E0,1.3735987E1,4.1955395E0,1.73076E1,6.8016243E0,1.7937268E0,2.6038346E0,2.8777122E0,2.8074E0,1.1237969E0,1.0080475E0],"tree_param":{"num_deleted":"0","num_feature":"41","num_nodes":"87","size_leaf_vector":"1"}},{"base_weights":[5.6536595E-4,-6.821469E-1,3.285635E-2,-8.322367E-1,-3.5554418E-1,1.938731E-2,3.0964938E-1,-2.887656E-1,-1.7926846E-1,-2.2754362E-1,1.0598431E-1,-7.322113E-2,1.5842088E-1,9.47487E-2,-1.7565942E-1,1.5943094E-1,-9.1471635E-2,8.8197514E-2,-2.2766827E-1,1.1154259E-1,5.18798E-1,-2.4621584E-2,6.5122133E-1,-2.5850418E-1,2.656162E-1,1.8163558E-2,2.929879E-1,6.2238127E-1,-9.6141644E-2,2.9830876E-1,-2.0897543E-2,2.1902053E-1,-6.678409E-2,-5.758995E-2,-2.125425E-1,-2.0854399E-2,1.3244842E-1,1.6554262E-1,-5.8359415E-3,-8.587936E-2,2.0948745E-1],"categories":[],"categories_nodes":[],"categories_segments":[],"categories_sizes":[],"default_left":[0,0,0,0,0,0,0,0,0,0,0,0,0,0,0,0,0,0,0,0,0,0,0,0,0,0,0,0,0,0,0,0,0,0,0,0,0,0,0,0,0],"id":11,"left_children":[1,3,5,7,9,11,-1,-1,13,-1,15,17,19,-1,-1,-1,-1,21,23,25,27,29,31,33,-1,35,37,39,-1,-1,-1,-1,-1,-1,-1,-1,-1,-1,-1,-1,-1],"loss_changes":[9.560124E0,6.641445E-1,5.553037E0,9.0577126E-1,1.5517952E0,5.285046E0,0E0,0E0,8.561716E-1,0E0,9.601292E-1,6.165715E0,2.7136912E0,0E0,0E0,0E0,0E0,7.7181344E0,4.562181E0,2.4759538E0,1.8173361E0,4.7491994E0,1.559639E0,3.5653248E0,0E0,3.6590023E0,4.0292335E0,1.3659759E0,0E0,0E0,0E0,0E0,0E0,0E0,0E0,0E0,0E0,0E0,0E0,0E0,0E0],"parents":[2147483647,0,0,1,1,2,2,3,3,4,4,5,5,8,8,10,10,11,11,12,12,17,17,18,18,19,19,20,20,21,21,22,22,23,23,25,25,26,26,27,27],"right_children":[2,4,6,8,10,12,-1,-1,14,-1,16,18,20,-1,-1,-1,-1,22,24,26,28,30,32,34,-1,36,38,40,-1,-1,-1,-1,-1,-1,-1,-1,-1,-1,-1,-1,-1],"split_conditions":[-9.1532683E-1,1.4579693E0,1.0017485E1,3.9864354E0,-9.5970434E-1,1.8086218E-3,3.0964938E-1,-2.887656E-1,-1.0139436E0,-2.2754362E-1,1.9033068E0,8.8962203E-1,8.623881E-1,9.47487E-2,-1.7565942E-1,1.5943094E-1,-9.1471635E-2,2.8918138E0,6.6746206E0,1.4797345E0,3.9864354E0,-1.3828291E0,5.3071146E0,2.5374262E0,2.656162E-1,1.3084801E0,1.7179252E0,-5.616669E-1,-9.6141644E-2,2.9830876E-1,-2.0897543E-2,2.1902053E-1,-6.678409E-2,-5.758995E-2,-2.125425E-1,-2.0854399E-2,1.3244842E-1,1.6554262E-1,-5.8359415E-3,-8.587936E-2,2.0948745E-1],"split_indices":[6,25,40,28,6,6,0,0,6,0,12,3,7,0,0,0,0,30,37,38,28,0,26,23,0,6,29,2,0,0,0,0,0,0,0,0,0,0,0,0,0],"split_type":[0,0,0,0,0,0,0,0,0,0,0,0,0,0,0,0,0,0,0,0,0,0,0,0,0,0,0,0,0,0,0,0,0,0,0,0,0,0,0,0,0],"sum_hessian":[4.3163855E2,1.858478E1,4.1305377E2,1.1672525E1,6.9122534E0,4.0856638E2,4.487406E0,9.335323E0,2.3372023E0,3.346877E0,3.565376E0,2.4550923E2,1.6305713E2,1.1537589E0,1.1834435E0,1.6075122E0,1.9578639E0,1.2025503E2,1.252542E2,1.4544676E2,1.7610373E1,1.0097738E2,1.9277647E1,1.2262479E2,2.6294227E0,9.675359E1,4.8693165E1,1.5905706E1,1.7046667E0,3.3818712E0,9.759551E1,1.7833075E1,1.4445736E0,1.0807085E2,1.4553936E1,8.0845146E1,1.5908448E1,2.6212805E1,2.2480358E1,1.0126917E0,1.4893015E1],"tree_param":{"num_deleted":"0","num_feature":"41","num_nodes":"41","size_leaf_vector":"1"}},{"base_weights":[2.7456766E-3,-6.3629085E-1,2.714923E-2,-7.63632E-1,-2.3537609E-1,8.588573E-3,6.59408E-1,-2.6605037E-1,-8.9272076E-1,-4.715635E-1,8.3381146E-2,-1.22811586E-1,9.017601E-2,8.9552563E-1,-1.3132341E-1,-1.8879181E-1,8.504851E-2,-2.9274014E-1,-6.2859975E-2,-1.9694607E-1,-1.681463E-2,-2.9942952E-2,-6.7635614E-1,6.094204E-2,5.433638E-1,9.4594294E-1,6.947332E-2,1.8393522E-2,-8.1585884E-1,9.3756296E-2,-7.495741E-1,1.0521085E0,4.6402175E-2,7.940702E-1,-4.119926E-1,3.1044114E-1,6.922984E-2,-3.5050068E-2,8.029186E-2,-1.8239602E-2,-2.7995342E-1,-2.5680336E-1,4.5823116E-2,2.2263763E-2,4.3695942E-1,8.798011E-2,-1.1463538E-3,3.1902385E-1,1.1247643E-1,-3.0532032E-1,1.7307843E-1],"categories":[],"categories_nodes":[],"categories_segments":[],"categories_sizes":[],"default_left":[0,0,0,0,0,0,0,0,0,0,0,0,0,0,0,0,0,0,0,0,0,0,0,0,0,0,0,0,0,0,0,0,0,0,0,0,0,0,0,0,0,0,0,0,0,0,0,0,0,0,0],"id":12,"left_children":[1,3,5,7,9,11,13,15,17,19,-1,21,23,25,-1,-1,-1,-1,-1,-1,-1,27,29,31,33,35,-1,37,39,-1,41,43,45,47,49,-1,-1,-1,-1,-1,-1,-1,-1,-1,-1,-1,-1,-1,-1,-1,-1],"loss_changes":[6.5253735E0,6.060438E-1,4.7228265E0,4.8418617E-1,7.561513E-1,4.2184424E0,3.3654828E0,9.2480636E-1,2.778015E-1,2.630236E-1,0E0,7.7297764E0,3.1822639E0,1.0810804E-1,0E0,0E0,0E0,0E0,0E0,0E0,0E0,4.9590335E0,1.7991009E0,3.2530844E0,3.8194485E0,3.1789017E-1,0E0,4.19661E0,6.1318827E-1,0E0,2.09161E0,1.183671E0,2.813703E0,9.437833E-1,2.7971797E0,0E0,0E0,0E0,0E0,0E0,0E0,0E0,0E0,0E0,0E0,0E0,0E0,0E0,0E0,0E0,0E0],"parents":[2147483647,0,0,1,1,2,2,3,3,4,4,5,5,6,6,7,7,8,8,9,9,11,11,12,12,13,13,21,21,22,22,23,23,24,24,25,25,27,27,28,28,30,30,31,31,32,32,33,33,34,34],"right_children":[2,4,6,8,10,12,14,16,18,20,-1,22,24,26,-1,-1,-1,-1,-1,-1,-1,28,30,32,34,36,-1,38,40,-1,42,44,46,48,50,-1,-1,-1,-1,-1,-1,-1,-1,-1,-1,-1,-1,-1,-1,-1,-1],"split_conditions":[-9.276539E-1,1.5090672E0,6.6746206E0,-4.2845437E-1,-1.8991862E-1,-3.5814238E-1,2.01004E0,-4.6192157E-1,2.7917604E0,-9.671006E-1,8.3381146E-2,2.3969615E0,1.7192225E0,1.6222835E0,-1.3132341E-1,-1.8879181E-1,8.504851E-2,-2.9274014E-1,-6.2859975E-2,-1.9694607E-1,-1.681463E-2,2.8442373E0,-1.28589E0,-3.458153E-1,1.7179252E0,6.9696194E-1,6.947332E-2,1.4579693E0,-8.561568E-1,9.3756296E-2,2.6630464E0,8.8962203E-1,-8.9813346E-1,4.6527457E0,6.7240226E-1,3.1044114E-1,6.922984E-2,-3.5050068E-2,8.029186E-2,-1.8239602E-2,-2.7995342E-1,-2.5680336E-1,4.5823116E-2,2.2263763E-2,4.3695942E-1,8.798011E-2,-1.1463538E-3,3.1902385E-1,1.1247643E-1,-3.0532032E-1,1.7307843E-1],"split_indices":[6,22,37,2,2,6,0,2,36,6,0,4,0,0,0,0,0,0,0,0,0,31,0,6,29,2,0,25,6,0,20,3,0,13,6,0,0,0,0,0,0,0,0,0,0,0,0,0,0,0,0],"split_type":[0,0,0,0,0,0,0,0,0,0,0,0,0,0,0,0,0,0,0,0,0,0,0,0,0,0,0,0,0,0,0,0,0,0,0,0,0,0,0,0,0,0,0,0,0,0,0,0,0,0,0],"sum_hessian":[4.1632593E2,1.4391571E1,4.0193436E2,1.0235714E1,4.155857E0,3.9145633E2,1.047805E1,2.7390077E0,7.496706E0,2.9019403E0,1.2539166E0,1.4975845E2,2.4169786E2,8.77365E0,1.7043998E0,1.5616202E0,1.1773876E0,6.302036E0,1.1946702E0,1.6068711E0,1.2950692E0,1.2914568E2,2.0612785E1,2.281171E2,1.3580768E1,7.7596893E0,1.0139611E0,1.22583E2,6.5626707E0,1.1956782E0,1.9417107E1,2.2662904E0,2.258508E2,1.0891439E1,2.6893277E0,6.504575E0,1.2551148E0,7.981245E1,4.2770557E1,1.0867349E0,5.475936E0,1.741425E1,2.0028574E0,1.0093002E0,1.2569902E0,3.7362442E1,1.8848836E2,5.6948705E0,5.196569E0,1.6497022E0,1.0396255E0],"tree_param":{"num_deleted":"0","num_feature":"41","num_nodes":"51","size_leaf_vector":"1"}},{"base_weights":[1.6986522E-3,-4.042399E-1,3.0642068E-2,-6.806905E-2,-5.980573E-1,2.0202236E-2,2.7351874E-1,-6.084193E-1,6.6785437E-1,-6.9704294E-1,-5.6976955E-2,3.4212843E-2,-6.108954E-1,-7.4101436E-1,-5.58302E-3,9.351365E-2,3.3671552E-1,-8.820685E-1,-1.304371E-1,-1.16856955E-1,1.13051735E-1,1.2166699E-2,4.6011978E-1,-8.5449564E-1,8.844139E-2,-2.423082E-1,-6.731217E-2,1.4388183E-1,-1.1123478E-1,-2.994655E-1,-2.9646607E-2,9.8340966E-2,-1.7765558E-1,-2.6924012E-3,6.216482E-1,-2.22279E-1,5.878783E-1,-3.1972033E-1,4.1249547E-2,-5.2550435E-3,1.9039951E-1,2.520165E-1,-6.5700114E-2,1.989639E-1,-1.6287796E-2],"categories":[],"categories_nodes":[],"categories_segments":[],"categories_sizes":[],"default_left":[0,0,0,0,0,0,0,0,0,0,0,0,0,0,0,0,0,0,0,0,0,0,0,0,0,0,0,0,0,0,0,0,0,0,0,0,0,0,0,0,0,0,0,0,0],"id":13,"left_children":[1,3,5,7,9,11,-1,13,15,17,19,21,23,25,-1,27,-1,29,31,-1,-1,33,35,37,-1,-1,-1,-1,-1,-1,-1,-1,-1,39,41,-1,43,-1,-1,-1,-1,-1,-1,-1,-1],"loss_changes":[4.80672E0,1.733377E0,3.4937706E0,4.814711E0,8.7842274E-1,3.3665378E0,0E0,5.2705145E-1,1.2447698E0,1.3948436E0,6.863472E-1,3.4789488E0,2.076668E0,1.2397528E-2,0E0,7.82835E-1,0E0,8.732748E-1,1.192602E0,0E0,0E0,3.2064414E0,3.2339354E0,1.5660558E0,0E0,0E0,0E0,0E0,0E0,0E0,0E0,0E0,0E0,3.2844708E0,1.7310693E0,0E0,8.604202E-1,0E0,0E0,0E0,0E0,0E0,0E0,0E0,0E0],"parents":[2147483647,0,0,1,1,2,2,3,3,4,4,5,5,7,7,8,8,9,9,10,10,11,11,12,12,13,13,15,15,17,17,18,18,21,21,22,22,23,23,33,33,34,34,36,36],"right_children":[2,4,6,8,10,12,-1,14,16,18,20,22,24,26,-1,28,-1,30,32,-1,-1,34,36,38,-1,-1,-1,-1,-1,-1,-1,-1,-1,40,42,-1,44,-1,-1,-1,-1,-1,-1,-1,-1],"split_conditions":[-8.610876E-1,-3.9990884E-1,1.0017485E1,-4.5798427E-1,2.678318E0,6.7926087E0,2.7351874E-1,9.437097E-1,3.62075E-1,1.5090672E0,-9.10396E-1,1.6647688E0,6.2062854E-1,8.372252E-1,-5.58302E-3,-4.2418897E-1,3.3671552E-1,1.8161618E0,1.2952542E-1,-1.16856955E-1,1.13051735E-1,6.6746206E0,-7.254897E-1,1.0406488E0,8.844139E-2,-2.423082E-1,-6.731217E-2,1.4388183E-1,-1.1123478E-1,-2.994655E-1,-2.9646607E-2,9.8340966E-2,-1.7765558E-1,2.01004E0,2.01004E0,-2.22279E-1,2.678318E0,-3.1972033E-1,4.1249547E-2,-5.2550435E-3,1.9039951E-1,2.520165E-1,-6.5700114E-2,1.989639E-1,-1.6287796E-2],"split_indices":[6,2,40,2,8,34,0,0,0,22,6,5,6,5,0,2,0,0,7,0,0,37,6,0,0,0,0,0,0,0,0,0,0,0,0,0,8,0,0,0,0,0,0,0,0],"split_type":[0,0,0,0,0,0,0,0,0,0,0,0,0,0,0,0,0,0,0,0,0,0,0,0,0,0,0,0,0,0,0,0,0,0,0,0,0,0,0,0,0,0,0,0,0],"sum_hessian":[4.0705444E2,2.6228382E1,3.8082608E2,1.0085893E1,1.614249E1,3.7737753E2,3.4485455E0,5.915619E0,4.1702733E0,1.3402402E1,2.7400877E0,3.701068E2,7.2707233E0,4.620517E0,1.2951018E0,2.3749921E0,1.7952812E0,9.683492E0,3.7189105E0,1.6088825E0,1.1312051E0,3.5286984E2,1.7236969E1,5.774208E0,1.4965153E0,3.593383E0,1.027134E0,1.2786977E0,1.0962945E0,8.193929E0,1.4895631E0,2.0121393E0,1.7067711E0,3.4544354E2,7.4262986E0,1.1958066E0,1.6041162E1,4.699207E0,1.0750012E0,3.3854184E2,6.901689E0,5.8953485E0,1.5309497E0,1.4327591E1,1.7135723E0],"tree_param":{"num_deleted":"0","num_feature":"41","num_nodes":"45","size_leaf_vector":"1"}},{"base_weights":[1.1075907E-3,-2.2922437E-1,3.7813455E-2,-1.4875324E-1,-2.6570576E-1,1.364264E-1,-3.1339668E-2,-1.842289E-2,-6.121336E-1,2.0051251E-1,-3.8232458E-1,7.887606E-3,-4.3875176E-1,8.591406E-2,-6.234615E-1,-2.8710952E-1,1.641259E-1,1.5758856E-1,8.714217E-1,-5.983647E-1,2.7004862E-1,-7.892812E-3,2.4558504E-1,-9.497145E-1,-1.5161106E-1,-5.737718E-1,1.8937391E-1,6.595212E-2,-2.6269427E-1,2.4158368E-1,-2.0330937E-1,4.434803E-1,5.3000353E-2,-4.4217683E-2,1.0639644E0,-3.3763874E-1,-3.150944E-1,-1.0988502E-1,5.5764484E-1,-9.963196E-2,1.1708597E-1,-8.324304E-2,-3.1444323E-1,-8.799203E-1,1.1530908E-1,-2.33828E-1,-1.9085262E-2,8.397627E-2,-2.1337555E-1,1.7941567E-1,3.200309E-2,1.4467794E-1,-5.521952E-3,4.3986982E-1,1.2536891E-1,1.776551E-2,-3.3909646E-1,2.1809809E-1,2.1278054E-2,-2.0492285E-2,-2.6827392E-1,-1.4618655E-2,8.276993E-2,6.2133655E-2,-4.4861063E-1,-9.8366424E-2,1.884299E-1],"categories":[],"categories_nodes":[],"categories_segments":[],"categories_sizes":[],"default_left":[0,0,0,0,0,0,0,0,0,0,0,0,0,0,0,0,0,0,0,0,0,0,0,0,0,0,0,0,0,0,0,0,0,0,0,0,0,0,0,0,0,0,0,0,0,0,0,0,0,0,0,0,0,0,0,0,0,0,0,0,0,0,0,0,0,0,0],"id":14,"left_children":[1,3,5,7,-1,9,11,13,15,17,19,21,23,25,27,-1,29,31,33,35,37,39,-1,41,43,45,47,-1,-1,-1,-1,49,51,-1,53,55,-1,-1,57,59,61,-1,-1,63,65,-1,-1,-1,-1,-1,-1,-1,-1,-1,-1,-1,-1,-1,-1,-1,-1,-1,-1,-1,-1,-1,-1],"loss_changes":[3.400495E0,2.7888362E0,2.3699076E0,3.0356083E0,0E0,4.8365736E0,3.2752237E0,2.6043978E0,3.1138797E0,3.5514398E0,2.4289007E0,2.4081104E0,2.496605E0,2.5208566E0,1.4822009E0,0E0,2.8401775E0,3.6127207E0,1.6244378E0,1.1060667E0,1.0627664E0,2.1342452E0,0E0,1.2504625E-1,2.5727744E0,4.7914934E-1,2.7518563E0,0E0,0E0,0E0,0E0,1.6248674E0,2.7728493E0,0E0,1.0542288E0,3.0035095E0,0E0,0E0,2.4742103E-1,2.6097393E0,2.0892406E0,0E0,0E0,2.6682086E0,2.52115E0,0E0,0E0,0E0,0E0,0E0,0E0,0E0,0E0,0E0,0E0,0E0,0E0,0E0,0E0,0E0,0E0,0E0,0E0,0E0,0E0,0E0,0E0],"parents":[2147483647,0,0,1,1,2,2,3,3,5,5,6,6,7,7,8,8,9,9,10,10,11,11,12,12,13,13,14,14,16,16,17,17,18,18,19,19,20,20,21,21,23,23,24,24,25,25,26,26,31,31,32,32,34,34,35,35,38,38,39,39,40,40,43,43,44,44],"right_children":[2,4,6,8,-1,10,12,14,16,18,20,22,24,26,28,-1,30,32,34,36,38,40,-1,42,44,46,48,-1,-1,-1,-1,50,52,-1,54,56,-1,-1,58,60,62,-1,-1,64,66,-1,-1,-1,-1,-1,-1,-1,-1,-1,-1,-1,-1,-1,-1,-1,-1,-1,-1,-1,-1,-1,-1],"split_conditions":[-7.550747E-1,1.4283278E0,-2.3690589E-1,1.4797345E0,-2.6570576E-1,2.3830123E0,3.2788298E0,3.2788298E0,9.554457E-1,3.9864354E0,3.864138E-1,6.6746206E0,-3.8526198E-1,-9.5970434E-1,6.738612E-1,-2.8710952E-1,-5.1037705E-1,-7.042552E-1,-6.0731614E-1,7.190047E-1,9.7755814E-1,-2.6439953E-1,2.4558504E-1,-7.1316254E-1,3.6434314E-1,6.5289235E-1,2.3830123E0,6.595212E-2,-2.6269427E-1,2.4158368E-1,-2.0330937E-1,8.6627465E-1,-1.4089646E0,-4.4217683E-2,1.234527E0,2.3969615E0,-3.150944E-1,-1.0988502E-1,7.6115733E-1,4.6527457E0,-1.2262057E-1,-8.324304E-2,-3.1444323E-1,9.7755814E-1,1.2952542E-1,-2.33828E-1,-1.9085262E-2,8.397627E-2,-2.1337555E-1,1.7941567E-1,3.200309E-2,1.4467794E-1,-5.521952E-3,4.3986982E-1,1.2536891E-1,1.776551E-2,-3.3909646E-1,2.1809809E-1,2.1278054E-2,-2.0492285E-2,-2.6827392E-1,-1.4618655E-2,8.276993E-2,6.2133655E-2,-4.4861063E-1,-9.8366424E-2,1.884299E-1],"split_indices":[6,5,7,38,0,35,39,39,5,28,6,37,6,6,27,0,0,0,0,5,24,2,0,6,5,0,35,0,0,0,0,21,5,0,0,4,0,0,6,13,0,0,0,24,7,0,0,0,0,0,0,0,0,0,0,0,0,0,0,0,0,0,0,0,0,0,0],"split_type":[0,0,0,0,0,0,0,0,0,0,0,0,0,0,0,0,0,0,0,0,0,0,0,0,0,0,0,0,0,0,0,0,0,0,0,0,0,0,0,0,0,0,0,0,0,0,0,0,0,0,0,0,0,0,0,0,0,0,0,0,0,0,0,0,0,0,0],"sum_hessian":[4.0018442E2,5.428668E1,3.4589774E2,4.945137E1,4.8353076E0,1.4217795E2,2.0371979E2,3.9407402E1,1.0043966E1,1.2709073E2,1.5087223E1,1.8672208E2,1.6997713E1,3.4343056E1,5.064347E0,6.792937E0,3.2510297E0,1.20609184E2,6.48154E0,1.1396081E1,3.691142E0,1.8412837E2,2.5936975E0,5.2852316E0,1.1712481E1,4.039616E0,3.030344E1,1.1953605E0,3.8689864E0,1.8701164E0,1.3809133E0,3.1436712E1,8.917247E1,1.0675005E0,5.41404E0,8.33485E0,3.0612302E0,1.0637963E0,2.6273458E0,1.0630171E2,7.782666E1,1.1627976E0,4.1224337E0,2.5253444E0,9.187137E0,2.5028393E0,1.5367769E0,2.816135E1,2.142089E0,2.1015999E1,1.0420712E1,1.1897492E1,7.727498E1,2.5542128E0,2.8598273E0,6.170753E0,2.1640978E0,1.5829196E0,1.0444261E0,1.0331492E2,2.986795E0,3.8413227E1,3.9413433E1,1.152762E0,1.3725823E0,5.121383E0,4.065753E0],"tree_param":{"num_deleted":"0","num_feature":"41","num_nodes":"67","size_leaf_vector":"1"}},{"base_weights":[-3.5442228E-3,7.582646E-1,-1.2721159E-2,2.671222E-1,4.3939497E-2,-6.149156E-1,1.9330069E-4,-2.4029109E-1,-2.2169542E-1,-5.9147265E-2,1.06269255E-1,-1.9254687E-1,1.1507265E-1,-2.22289E-2,-4.7757784E-1,1.3089733E-1,-3.9798796E-1,-1.2152303E-1,1.7029274E-1,-1.5593614E-1,-9.01947E-1,7.657511E-2,4.5468605E-1,-2.798377E-1,1.2714027E-1,-5.52975E-2,5.4878052E-2,7.3307686E-2,-1.7643853E-1,-2.2224545E-1,1.1572672E-1,-1.0264453E-1,-4.3160245E-1,4.0875442E-2,-1.1542494E-1,-8.531544E-3,1.9825791E-1,1.9462685E-1,-8.343232E-2],"categories":[],"categories_nodes":[],"categories_segments":[],"categories_sizes":[],"default_left":[0,0,0,0,0,0,0,0,0,0,0,0,0,0,0,0,0,0,0,0,0,0,0,0,0,0,0,0,0,0,0,0,0,0,0,0,0,0,0],"id":15,"left_children":[1,3,5,-1,-1,7,9,11,-1,13,15,-1,-1,17,19,21,23,25,27,29,31,33,35,-1,37,-1,-1,-1,-1,-1,-1,-1,-1,-1,-1,-1,-1,-1,-1],"loss_changes":[2.7621074E0,2.4978256E-1,3.0332189E0,0E0,0E0,2.0303345E-1,2.4159842E0,1.1277281E0,0E0,3.7915668E0,1.7620267E0,0E0,0E0,4.3643827E0,2.576531E0,2.2874293E0,1.988736E0,2.911134E0,4.5102177E0,4.256565E0,2.023737E0,3.19811E0,1.8880024E0,0E0,1.0766876E0,0E0,0E0,0E0,0E0,0E0,0E0,0E0,0E0,0E0,0E0,0E0,0E0,0E0,0E0],"parents":[2147483647,0,0,1,1,2,2,5,5,6,6,7,7,9,9,10,10,13,13,14,14,15,15,16,16,17,17,18,18,19,19,20,20,21,21,22,22,24,24],"right_children":[2,4,6,-1,-1,8,10,12,-1,14,16,-1,-1,18,20,22,24,26,28,30,32,34,36,-1,38,-1,-1,-1,-1,-1,-1,-1,-1,-1,-1,-1,-1,-1,-1],"split_conditions":[-1.5767072E0,-1.3378936E-1,-9.4737726E-1,2.671222E-1,4.3939497E-2,-4.2418897E-1,9.056366E-2,-4.5371884E-1,-2.2169542E-1,2.8442373E0,2.3955858E0,-1.9254687E-1,1.1507265E-1,1.4579693E0,3.6434314E-1,3.0618325E-1,-3.164988E-1,2.2177124E0,2.3830123E0,1.2952542E-1,-1.929594E-1,-1.3067491E-2,-5.1037705E-1,-2.798377E-1,5.515968E-1,-5.52975E-2,5.4878052E-2,7.3307686E-2,-1.7643853E-1,-2.2224545E-1,1.1572672E-1,-1.0264453E-1,-4.3160245E-1,4.0875442E-2,-1.1542494E-1,-8.531544E-3,1.9825791E-1,1.9462685E-1,-8.343232E-2],"split_indices":[0,6,6,0,0,2,6,2,0,31,2,0,0,25,5,2,0,17,35,7,6,2,0,0,6,0,0,0,0,0,0,0,0,0,0,0,0,0,0],"split_type":[0,0,0,0,0,0,0,0,0,0,0,0,0,0,0,0,0,0,0,0,0,0,0,0,0,0,0,0,0,0,0,0,0,0,0,0,0,0,0],"sum_hessian":[3.92711E2,3.7027864E0,3.890082E2,2.6705775E0,1.032209E0,7.1886935E0,3.8181952E2,2.5190916E0,4.669602E0,2.4513148E2,1.3668802E2,1.5151387E0,1.0039529E0,2.2622469E2,1.8906807E1,1.3102895E2,5.659077E0,1.4949207E2,7.6732605E1,1.1533038E1,7.3737693E0,1.1326321E2,1.7765736E1,2.4190946E0,3.2399826E0,1.2425524E2,2.523683E1,7.0523224E1,6.2093806E0,5.368691E0,6.1643476E0,4.410822E0,2.9629474E0,1.0091379E2,1.2349417E1,5.571697E0,1.2194038E1,1.1538785E0,2.0861042E0],"tree_param":{"num_deleted":"0","num_feature":"41","num_nodes":"39","size_leaf_vector":"1"}},{"base_weights":[-4.3287943E-3,3.5709098E-2,-1.7124583E-1,8.644927E-3,6.391306E-1,-5.220453E-1,-8.383131E-5,1.3832752E-1,-8.749914E-2,7.972601E-1,-1.3399963E-1,-6.875749E-1,8.002856E-1,-1.654855E-1,2.4736165E-1,-1.1516923E-1,2.1547092E-1,-3.4897548E-1,6.4013205E-3,1.0065764E0,1.4809541E-1,-7.7356845E-1,1.283876E-1,3.0047533E-1,5.6987975E-2,-3.793469E-2,-1.0242558E0,3.2739204E-1,-1.3193776E-1,-3.43331E-1,7.555906E-1,3.2197702E-1,-1.6413084E-1,-8.9756295E-2,-5.9398204E-1,-3.555999E-2,6.234237E-1,3.694546E-1,7.071136E-3,-1.5709728E-1,1.8654396E-1,-2.5932297E-1,-8.3443993E-1,3.8901195E-2,-2.8207183E-1,-3.9916378E-1,-9.808032E-2,7.8190976E-1,1.3522506E-1,-1.8014771E-1,9.638347E-2,5.6853484E-2,3.1705517E-1,1.5293798E-1,2.6456567E-2,9.118776E-2,-1.07550785E-1,-8.442597E-2,2.0060006E-1,-2.511667E-1,5.4836046E-2,-3.5443503E-2,6.380187E-2,2.2711144E-1,-3.814768E-2,-1.9287391E-1,7.417751E-2,-2.6275295E-1,-2.4855124E-2,-1.6992057E-2,2.2425196E-1,6.935879E-2,2.5772128E-1,-1.7662953E-1,1.1677964E-1],"categories":[],"categories_nodes":[],"categories_segments":[],"categories_sizes":[],"default_left":[0,0,0,0,0,0,0,0,0,0,0,0,0,0,0,0,0,0,0,0,0,0,0,0,0,0,0,0,0,0,0,0,0,0,0,0,0,0,0,0,0,0,0,0,0,0,0,0,0,0,0,0,0,0,0,0,0,0,0,0,0,0,0,0,0,0,0,0,0,0,0,0,0,0,0],"id":16,"left_children":[1,3,5,7,9,11,13,15,17,19,-1,21,23,25,27,29,31,33,35,37,39,41,-1,-1,-1,43,45,47,-1,49,51,53,55,57,59,61,63,-1,-1,-1,-1,65,67,69,-1,-1,-1,71,73,-1,-1,-1,-1,-1,-1,-1,-1,-1,-1,-1,-1,-1,-1,-1,-1,-1,-1,-1,-1,-1,-1,-1,-1,-1,-1],"loss_changes":[2.591295E0,5.103166E0,4.5037737E0,3.7576213E0,2.659306E0,5.9341516E0,2.1451316E0,2.5334644E0,4.2528667E0,1.4907641E0,0E0,2.4796944E0,2.0271397E-1,3.4021137E0,1.2987586E0,6.3352766E0,4.043312E0,2.8530364E0,3.3455637E0,1.9506693E0,1.6350958E0,4.4570923E-1,0E0,0E0,0E0,2.0048265E0,4.24448E-1,1.5870876E0,0E0,4.452059E0,9.358268E-1,3.3541965E0,2.1367815E0,3.5916793E0,4.5644093E0,2.508396E0,9.213822E-1,0E0,0E0,0E0,0E0,8.759295E-1,5.0193596E-1,1.8785479E0,0E0,0E0,0E0,3.7233353E-2,2.9569569E0,0E0,0E0,0E0,0E0,0E0,0E0,0E0,0E0,0E0,0E0,0E0,0E0,0E0,0E0,0E0,0E0,0E0,0E0,0E0,0E0,0E0,0E0,0E0,0E0,0E0,0E0],"parents":[2147483647,0,0,1,1,2,2,3,3,4,4,5,5,6,6,7,7,8,8,9,9,11,11,12,12,13,13,14,14,15,15,16,16,17,17,18,18,19,19,20,20,21,21,25,25,26,26,27,27,29,29,30,30,31,31,32,32,33,33,34,34,35,35,36,36,41,41,42,42,43,43,47,47,48,48],"right_children":[2,4,6,8,10,12,14,16,18,20,-1,22,24,26,28,30,32,34,36,38,40,42,-1,-1,-1,44,46,48,-1,50,52,54,56,58,60,62,64,-1,-1,-1,-1,66,68,70,-1,-1,-1,72,74,-1,-1,-1,-1,-1,-1,-1,-1,-1,-1,-1,-1,-1,-1,-1,-1,-1,-1,-1,-1,-1,-1,-1,-1,-1,-1],"split_conditions":[1.7179252E0,2.7917604E0,-2.0528649E-1,8.6627465E-1,6.369178E-1,3.2788298E0,2.7917604E0,-9.3608254E-1,-5.652375E-1,9.437097E-1,-1.3399963E-1,1.0017485E1,-3.4497994E-1,1.9033068E0,4.863155E-1,2.2177124E0,2.2177124E0,-2.3690589E-1,1.8161618E0,-2.4226774E-1,-1.6454057E0,-1.2907441E0,1.283876E-1,3.0047533E-1,5.6987975E-2,4.9657054E0,9.681601E-3,1.1768326E-1,-1.3193776E-1,1.2952542E-1,-2.4044752E-1,-4.134379E-1,-4.3468848E-1,6.008258E-1,3.7142456E0,1.4797345E0,1.1635339E0,3.694546E-1,7.071136E-3,-1.5709728E-1,1.8654396E-1,8.6627465E-1,1.5465484E0,1.5057136E0,-2.8207183E-1,-3.9916378E-1,-9.808032E-2,-1.4089646E0,-4.9768552E-1,-1.8014771E-1,9.638347E-2,5.6853484E-2,3.1705517E-1,1.5293798E-1,2.6456567E-2,9.118776E-2,-1.07550785E-1,-8.442597E-2,2.0060006E-1,-2.511667E-1,5.4836046E-2,-3.5443503E-2,6.380187E-2,2.2711144E-1,-3.814768E-2,-1.9287391E-1,7.417751E-2,-2.6275295E-1,-2.4855124E-2,-1.6992057E-2,2.2425196E-1,6.935879E-2,2.5772128E-1,-1.7662953E-1,1.1677964E-1],"split_indices":[29,36,6,21,2,39,36,5,6,0,0,40,5,12,2,17,17,7,0,6,5,5,0,0,0,14,5,6,0,7,2,0,2,2,33,38,2,0,0,0,0,21,5,6,0,0,0,5,2,0,0,0,0,0,0,0,0,0,0,0,0,0,0,0,0,0,0,0,0,0,0,0,0,0,0],"split_type":[0,0,0,0,0,0,0,0,0,0,0,0,0,0,0,0,0,0,0,0,0,0,0,0,0,0,0,0,0,0,0,0,0,0,0,0,0,0,0,0,0,0,0,0,0,0,0,0,0,0,0,0,0,0,0,0,0,0,0,0,0,0,0,0,0,0,0,0,0,0,0,0,0,0,0],"sum_hessian":[3.8582892E2,3.118197E2,7.40092E1,2.9940536E2,1.2414359E1,2.3596914E1,5.041229E1,1.27282875E2,1.7212248E2,1.1068185E1,1.3461745E0,2.1398298E1,2.1986156E0,3.0413805E1,1.9998482E1,2.9582033E1,9.7700836E1,4.4761803E1,1.2736068E2,7.9531913E0,3.1149936E0,2.0151426E1,1.2468711E0,1.171247E0,1.0273687E0,2.738984E1,3.0239654E0,1.8381239E1,1.6172435E0,2.3920063E1,5.6619697E0,7.6413155E1,2.1287685E1,2.2413965E1,2.2347837E1,1.2013325E2,7.22743E0,6.266449E0,1.6867423E0,1.2446307E0,1.8703629E0,2.6896126E0,1.7461815E1,2.612228E1,1.2675595E0,1.4701415E0,1.5538237E0,4.5501685E0,1.3831071E1,1.7316252E1,6.6038113E0,2.5324543E0,3.1295152E0,4.1718014E1,3.469514E1,6.0805583E0,1.5207127E1,1.8394398E1,4.019568E0,1.6959309E1,5.3885283E0,9.0536545E1,2.9596703E1,6.127964E0,1.099466E0,1.3774605E0,1.3121523E0,1.6393421E1,1.0683932E0,2.3829422E1,2.2928574E0,1.0502934E0,3.499875E0,3.2503338E0,1.0580737E1],"tree_param":{"num_deleted":"0","num_feature":"41","num_nodes":"75","size_leaf_vector":"1"}},{"base_weights":[-1.9074111E-3,9.482835E-3,-5.7215536E-1,4.3719735E-2,-1.3577604E-1,5.184961E-2,-7.685261E-1,8.3771184E-2,-2.3319657E-1,-4.3737298E-1,1.7602673E-3,-3.0359116E-1,4.339906E-2,1.3563037E-1,-1.4252971E-1,4.708571E-1,-4.195954E-1,-5.918427E-1,6.8399036E-1,1.0714482E-1,-3.7012646E-1,-5.4639626E-2,2.5776282E-1,-6.367223E-1,-1.1940909E-3,-9.5559275E-1,-1.6422646E-1,-6.7117363E-1,1.1150807E-1,2.6568806E-1,4.2600624E-2,2.4427842E-1,-3.3769915E-1,-8.941879E-1,1.8246222E-2,-4.5418292E-2,1.5603684E-1,9.718875E-2,-4.945116E-2,-7.890731E-3,-2.478068E-1,1.7336959E-2,-2.7338907E-1,-2.146447E-2,-3.1074935E-1,-2.1937664E-1,2.845566E-2,-2.721246E-1,-1.4264636E-1,1.5173241E-2,1.4988312E-1,-1.555961E-1,1.563152E-1,-3.6913285E-1,4.529909E-2,-1.24711335E-1,1.7620055E-1],"categories":[],"categories_nodes":[],"categories_segments":[],"categories_sizes":[],"default_left":[0,0,0,0,0,0,0,0,0,0,0,0,0,0,0,0,0,0,0,0,0,0,0,0,0,0,0,0,0,0,0,0,0,0,0,0,0,0,0,0,0,0,0,0,0,0,0,0,0,0,0,0,0,0,0,0,0],"id":17,"left_children":[1,3,5,7,9,-1,11,13,15,17,19,-1,-1,21,23,-1,25,27,29,31,33,35,37,39,41,43,45,47,-1,-1,-1,49,51,53,55,-1,-1,-1,-1,-1,-1,-1,-1,-1,-1,-1,-1,-1,-1,-1,-1,-1,-1,-1,-1,-1,-1],"loss_changes":[2.453896E0,1.84883E0,1.2151616E0,3.3538947E0,2.9427633E0,0E0,1.4888523E0,3.1103814E0,1.3512361E1,4.25327E0,1.9877338E0,0E0,0E0,5.0055046E0,3.463129E0,0E0,4.6963096E0,1.7831078E0,2.1890652E-1,2.492538E0,2.2958932E0,4.7944436E0,3.7181473E0,1.2524772E0,2.1765957E0,7.227783E-1,3.7747102E0,4.4091034E-1,0E0,0E0,0E0,1.4969534E0,1.7820668E0,1.868274E0,2.074813E0,0E0,0E0,0E0,0E0,0E0,0E0,0E0,0E0,0E0,0E0,0E0,0E0,0E0,0E0,0E0,0E0,0E0,0E0,0E0,0E0,0E0,0E0],"parents":[2147483647,0,0,1,1,2,2,3,3,4,4,6,6,7,7,8,8,9,9,10,10,13,13,14,14,16,16,17,17,18,18,19,19,20,20,21,21,22,22,23,23,24,24,25,25,26,26,27,27,31,31,32,32,33,33,34,34],"right_children":[2,4,6,8,10,-1,12,14,16,18,20,-1,-1,22,24,-1,26,28,30,32,34,36,38,40,42,44,46,48,-1,-1,-1,50,52,54,56,-1,-1,-1,-1,-1,-1,-1,-1,-1,-1,-1,-1,-1,-1,-1,-1,-1,-1,-1,-1,-1,-1],"split_conditions":[6.7926087E0,1.7179252E0,-4.9768552E-1,3.2788298E0,-1.8309772E-1,5.184961E-2,6.2062854E-1,2.3830123E0,-1.0853892E-1,3.2788298E0,-2.2398708E-3,-3.0359116E-1,4.339906E-2,-8.1786203E-1,-2.7185276E-1,4.708571E-1,-4.4689745E-1,1.0017485E1,-4.134379E-1,6.5289235E-1,2.7205986E-1,2.7917604E0,2.5374262E0,-8.9813346E-1,8.7512547E-1,-9.10396E-1,3.6434314E-1,-2.3690589E-1,1.1150807E-1,2.6568806E-1,4.2600624E-2,-3.164988E-1,2.2177124E0,5.559532E-1,9.7755814E-1,-4.5418292E-2,1.5603684E-1,9.718875E-2,-4.945116E-2,-7.890731E-3,-2.478068E-1,1.7336959E-2,-2.7338907E-1,-2.146447E-2,-3.1074935E-1,-2.1937664E-1,2.845566E-2,-2.721246E-1,-1.4264636E-1,1.5173241E-2,1.4988312E-1,-1.555961E-1,1.563152E-1,-3.6913285E-1,4.529909E-2,-1.24711335E-1,1.7620055E-1],"split_indices":[34,29,2,39,6,0,6,35,5,39,2,0,0,5,6,0,6,40,0,0,2,36,23,0,2,6,5,7,0,0,0,0,17,0,24,0,0,0,0,0,0,0,0,0,0,0,0,0,0,0,0,0,0,0,0,0,0],"split_type":[0,0,0,0,0,0,0,0,0,0,0,0,0,0,0,0,0,0,0,0,0,0,0,0,0,0,0,0,0,0,0,0,0,0,0,0,0,0,0,0,0,0,0,0,0,0,0,0,0,0,0,0,0,0,0,0,0],"sum_hessian":[3.7596237E2,3.69564E2,6.3983746E0,2.996393E2,6.992469E1,1.3597295E0,5.0386453E0,2.623868E2,3.7252506E1,2.1217587E1,4.8707104E1,3.8927245E0,1.1459205E0,2.137943E2,4.859251E1,2.795558E0,3.4456947E1,1.9063736E1,2.1538506E0,3.850696E1,1.0200141E1,8.379804E1,1.2999625E2,1.0027038E1,3.8565475E1,1.023421E1,2.4222736E1,1.7893902E1,1.169834E0,1.1077136E0,1.0461371E0,2.9778048E1,8.728915E0,3.7872767E0,6.4128637E0,7.2354576E1,1.1443471E1,1.12592255E2,1.7403996E1,2.643079E0,7.383959E0,3.7097668E1,1.4678056E0,1.0090014E0,9.225209E0,7.0250134E0,1.7197723E1,6.464839E0,1.1429062E1,1.7613848E1,1.21642E1,7.5368066E0,1.192109E0,2.7313147E0,1.0559622E0,3.7913501E0,2.6215136E0],"tree_param":{"num_deleted":"0","num_feature":"41","num_nodes":"57","size_leaf_vector":"1"}},{"base_weights":[-4.428886E-3,-2.0784432E-2,3.146335E-1,4.3328288E-1,-3.6336355E-2,5.6189114E-1,-3.5014766E-1,-9.097993E-2,5.429275E-1,-2.5586527E-2,-6.0779977E-1,7.1557623E-1,-9.435482E-2,3.3435577E-1,-4.039018E-1,6.906901E-1,-7.062636E-2,-1.9466251E-2,-2.2738993E-1,3.2667715E-2,-8.173994E-1,-5.6417793E-2,8.6133397E-1,1.8981706E-1,-1.7418623E-2,8.2351047E-1,7.1799364E-3,5.8003712E-2,-7.7566795E-2,-1.029759E-1,-2.9226896E-1,2.831735E-1,3.5776015E-2,5.7214454E-2,2.6778287E-1,8.090177E-3,2.2244136E-1,-8.053491E-2,4.069612E-3],"categories":[],"categories_nodes":[],"categories_segments":[],"categories_sizes":[],"default_left":[0,0,0,0,0,0,0,0,0,0,0,0,0,0,0,0,0,0,0,0,0,0,0,0,0,0,0,0,0,0,0,0,0,0,0,0,0,0,0],"id":18,"left_children":[1,3,5,7,9,11,13,-1,15,17,19,21,-1,23,-1,25,-1,27,-1,-1,29,-1,31,-1,-1,33,-1,35,37,-1,-1,-1,-1,-1,-1,-1,-1,-1,-1],"loss_changes":[1.9242047E0,2.4908266E0,3.152297E0,1.108274E0,2.0719676E0,2.042048E0,4.1942916E0,0E0,1.3735359E0,1.4849691E0,1.0249107E0,1.7139106E0,0E0,5.115843E-1,0E0,7.8645706E-1,0E0,1.5026122E0,0E0,0E0,3.278923E-2,0E0,5.201664E-1,0E0,0E0,1.6037798E-1,0E0,3.0179126E0,3.3196363E0,0E0,0E0,0E0,0E0,0E0,0E0,0E0,0E0,0E0,0E0],"parents":[2147483647,0,0,1,1,2,2,3,3,4,4,5,5,6,6,8,8,9,9,10,10,11,11,13,13,15,15,17,17,20,20,22,22,25,25,27,27,28,28],"right_children":[2,4,6,8,10,12,14,-1,16,18,20,22,-1,24,-1,26,-1,28,-1,-1,30,-1,32,-1,-1,34,-1,36,38,-1,-1,-1,-1,-1,-1,-1,-1,-1,-1],"split_conditions":[1.5057136E0,-1.3828291E0,1.9033068E0,-5.1441914E-1,6.7926087E0,4.9657054E0,4.9595675E-1,-9.097993E-2,3.118472E0,1.4416127E0,-4.9768552E-1,-9.950726E-1,-9.435482E-2,8.8962203E-1,-4.039018E-1,1.7179252E0,-7.062636E-2,-2.3690589E-1,-2.2738993E-1,3.2667715E-2,-7.042552E-1,-5.6417793E-2,2.8442373E0,1.8981706E-1,-1.7418623E-2,-8.1177926E-1,7.1799364E-3,9.2880577E-1,-4.2224327E-1,-1.029759E-1,-2.9226896E-1,2.831735E-1,3.5776015E-2,5.7214454E-2,2.6778287E-1,8.090177E-3,2.2244136E-1,-8.053491E-2,4.069612E-3],"split_indices":[6,0,12,2,34,14,7,0,15,6,2,0,0,3,0,29,0,7,0,0,0,0,31,0,0,6,0,6,6,0,0,0,0,0,0,0,0,0,0],"split_type":[0,0,0,0,0,0,0,0,0,0,0,0,0,0,0,0,0,0,0,0,0,0,0,0,0,0,0,0,0,0,0,0,0,0,0,0,0,0,0],"sum_hessian":[3.6647867E2,3.4949783E2,1.6980848E1,1.068447E1,3.3881335E2,1.249008E1,4.490768E0,1.1556134E0,9.528856E0,3.3358307E2,5.230275E0,1.078275E1,1.7073301E0,3.0555818E0,1.4351863E0,8.103164E0,1.4256926E0,3.318366E2,1.7464776E0,1.292218E0,3.9380574E0,1.4573829E0,9.325367E0,1.3879259E0,1.667656E0,6.561076E0,1.5420879E0,1.422137E2,1.8962291E2,1.7713654E0,2.166692E0,8.14682E0,1.1785468E0,1.0160753E0,5.545001E0,1.3703055E2,5.1831417E0,6.0647213E1,1.289757E2],"tree_param":{"num_deleted":"0","num_feature":"41","num_nodes":"39","size_leaf_vector":"1"}},{"base_weights":[-2.5772417E-3,2.3602344E-1,-7.998554E-3,-1.7508352E-2,4.0072328E-1,-2.5534792E-2,5.5440646E-1,2.6776686E-1,-1.7280029E-1,-2.4423918E-1,1.711339E-3,4.0355228E-2,2.2219434E-1,1.19619004E-1,-4.6124288E-1,-1.4181913E-1,-6.8306136E-1,-1.5370326E-2,3.347033E-1,-1.4242925E-2,-2.2427835E-1,-4.775272E-3,-1.7945181E-1,-2.575171E-1,5.381993E-2,4.786312E-2,-1.357843E-2,1.3281842E-1,-1.2962869E-1],"categories":[],"categories_nodes":[],"categories_segments":[],"categories_sizes":[],"default_left":[0,0,0,0,0,0,0,0,0,0,0,0,0,0,0,0,0,0,0,0,0,0,0,0,0,0,0,0,0],"id":19,"left_children":[1,-1,3,5,7,9,11,-1,13,15,17,-1,-1,-1,19,21,23,25,27,-1,-1,-1,-1,-1,-1,-1,-1,-1,-1],"loss_changes":[1.5576664E0,0E0,1.4103999E0,1.6382849E0,2.4818401E0,2.085216E0,2.867397E-1,0E0,9.5002925E-1,1.6453784E0,1.780394E0,0E0,0E0,0E0,3.8537884E-1,1.8687747E0,1.2236073E0,1.56438E0,1.4563901E0,0E0,0E0,0E0,0E0,0E0,0E0,0E0,0E0,0E0,0E0],"parents":[2147483647,0,0,2,2,3,3,4,4,5,5,6,6,8,8,9,9,10,10,14,14,15,15,16,16,17,17,18,18],"right_children":[2,-1,4,6,8,10,12,-1,14,16,18,-1,-1,-1,20,22,24,26,28,-1,-1,-1,-1,-1,-1,-1,-1,-1,-1],"split_conditions":[-1.6736465E0,2.3602344E-1,6.6746206E0,2.5916746E0,-1.5317033E-1,-7.6000553E-1,-2.3690589E-1,2.6776686E-1,3.62075E-1,4.9595675E-1,1.6647688E0,4.0355228E-2,2.2219434E-1,1.19619004E-1,-6.9343925E-1,3.9608532E-1,2.8918138E0,-1.2907441E0,6.7926087E0,-1.4242925E-2,-2.2427835E-1,-4.775272E-3,-1.7945181E-1,-2.575171E-1,5.381993E-2,4.786312E-2,-1.357843E-2,1.3281842E-1,-1.2962869E-1],"split_indices":[0,0,37,0,2,6,7,0,0,7,5,0,0,0,6,2,30,5,34,0,0,0,0,0,0,0,0,0,0],"split_type":[0,0,0,0,0,0,0,0,0,0,0,0,0,0,0,0,0,0,0,0,0,0,0,0,0,0,0,0,0],"sum_hessian":[3.6154147E2,1.4831278E0,3.6005835E2,3.528067E2,7.2516484E0,3.4886597E2,3.9407468E0,3.6043887E0,3.6472597E0,3.776473E1,3.1110123E2,1.740036E0,2.2007108E0,1.0950783E0,2.5521815E0,3.1691246E1,6.0734806E0,2.9682852E2,1.4272728E1,1.5206709E0,1.0315105E0,2.5649727E1,6.0415206E0,5.0513215E0,1.0221591E0,4.2688766E1,2.5413974E2,1.2880749E1,1.3919793E0],"tree_param":{"num_deleted":"0","num_feature":"41","num_nodes":"29","size_leaf_vector":"1"}},{"base_weights":[-7.5350254E-4,-7.2547053E-3,5.9250915E-1,-2.0107923E-2,2.5856146E-1,3.905608E-2,2.202134E-1,3.2773313E-1,-3.1354636E-2,4.8688397E-1,-2.546524E-1,8.1646934E-2,2.0155929E-1,-1.833056E-2,-3.4032345E-1,6.63719E-1,-9.494131E-2,2.959161E-1,-2.731599E-1,1.8050674E-1,-3.1085894E-1,-2.803516E-2,4.2035058E-1,-5.197455E-1,1.9816472E-1,8.1024945E-1,-4.1573916E-2,1.7450906E-1,-1.3431305E-2,8.0955654E-2,-1.8800545E-1,-5.7148254E-3,-1.4964813E-1,2.4963118E-1,-2.7948946E-2,-2.3119894E-1,-1.6711084E-2,1.7341916E-2,2.7258438E-1],"categories":[],"categories_nodes":[],"categories_segments":[],"categories_sizes":[],"default_left":[0,0,0,0,0,0,0,0,0,0,0,0,0,0,0,0,0,0,0,0,0,0,0,0,0,0,0,0,0,0,0,0,0,0,0,0,0,0,0],"id":20,"left_children":[1,3,5,7,9,-1,-1,11,13,15,17,19,-1,21,23,25,-1,27,-1,-1,29,31,33,35,-1,37,-1,-1,-1,-1,-1,-1,-1,-1,-1,-1,-1,-1,-1],"loss_changes":[1.3902702E0,1.2230074E0,1.6010928E-1,1.3440053E0,2.0588813E0,0E0,0E0,8.568075E-1,1.3263674E0,1.8823323E0,2.3424973E0,1.7006054E0,0E0,1.369089E0,2.7385397E0,1.2844567E0,0E0,4.033884E-1,0E0,0E0,1.0650489E0,1.3140287E0,1.5497766E0,1.3391793E0,0E0,5.82294E-1,0E0,0E0,0E0,0E0,0E0,0E0,0E0,0E0,0E0,0E0,0E0,0E0,0E0],"parents":[2147483647,0,0,1,1,2,2,3,3,4,4,7,7,8,8,9,9,10,10,11,11,13,13,14,14,15,15,17,17,20,20,21,21,22,22,23,23,25,25],"right_children":[2,4,6,8,10,-1,-1,12,14,16,18,20,-1,22,24,26,-1,28,-1,-1,30,32,34,36,-1,38,-1,-1,-1,-1,-1,-1,-1,-1,-1,-1,-1,-1,-1],"split_conditions":[1.0017485E1,1.5057136E0,7.190047E-1,-1.3828291E0,1.9033068E0,3.905608E-2,2.202134E-1,7.190047E-1,5.3071146E0,3.053996E0,4.9595675E-1,-3.4497994E-1,2.0155929E-1,6.6746206E0,4.11068E-1,4.9657054E0,-9.494131E-2,8.8962203E-1,-2.731599E-1,1.8050674E-1,9.7755814E-1,6.7926087E0,-1.3938972E-1,-1.3067491E-2,1.9816472E-1,-1.0920117E0,-4.1573916E-2,1.7450906E-1,-1.3431305E-2,8.0955654E-2,-1.8800545E-1,-5.7148254E-3,-1.4964813E-1,2.4963118E-1,-2.7948946E-2,-2.3119894E-1,-1.6711084E-2,1.7341916E-2,2.7258438E-1],"split_indices":[40,6,5,0,12,0,0,5,26,6,7,5,0,37,6,14,0,3,0,0,24,34,2,2,0,0,0,0,0,0,0,0,0,0,0,0,0,0,0],"split_type":[0,0,0,0,0,0,0,0,0,0,0,0,0,0,0,0,0,0,0,0,0,0,0,0,0,0,0,0,0,0,0,0,0,0,0,0,0,0,0],"sum_hessian":[3.5834665E2,3.554394E2,2.9072714E0,3.3992697E2,1.55124035E1,1.1313996E0,1.7758718E0,9.765227E0,3.3016174E2,1.0771569E1,4.740834E0,6.415089E0,3.3501384E0,3.1782373E2,1.2338012E1,8.97074E0,1.8008292E0,2.8756995E0,1.8651345E0,2.5300333E0,3.8850558E0,3.1186078E2,5.962961E0,1.0870086E1,1.4679259E0,7.576983E0,1.3937573E0,1.179157E0,1.6965425E0,1.4198798E0,2.4651759E0,3.0704092E2,4.8198566E0,2.9650598E0,2.9979012E0,6.6263256E0,4.24376E0,1.0595595E0,6.517423E0],"tree_param":{"num_deleted":"0","num_feature":"41","num_nodes":"39","size_leaf_vector":"1"}},{"base_weights":[2.2591297E-3,2.0990616E-1,-2.228687E-3,-7.6648924E-3,5.288613E-1,-5.1469117E-2,5.414927E-2,2.7569322E-2,2.0005308E-1,2.7076818E-2,-2.610085E-1,1.12420656E-1,-1.9586506E-1,-8.96308E-2,1.6668455E-1,1.6440077E-1,-5.4971087E-1,4.372137E-1,2.4969187E-2,-6.794523E-1,5.2192483E-2,-4.153598E-2,1.9994988E-1,1.0478399E-1,-8.266554E-2,-9.371965E-2,1.2109215E-1,-1.8669319E-1,1.8919916E-1,7.943997E-2,2.945225E-1,-1.1989444E-1,2.4004683E-2,-6.414947E-2,-3.453632E-1,2.2842038E-1,-2.4520226E-2],"categories":[],"categories_nodes":[],"categories_segments":[],"categories_sizes":[],"default_left":[0,0,0,0,0,0,0,0,0,0,0,0,0,0,0,0,0,0,0,0,0,0,0,0,0,0,0,0,0,0,0,0,0,0,0,0,0],"id":21,"left_children":[1,-1,3,5,7,9,11,-1,-1,13,15,17,19,21,23,25,27,29,31,33,35,-1,-1,-1,-1,-1,-1,-1,-1,-1,-1,-1,-1,-1,-1,-1,-1],"loss_changes":[1.1177095E0,0E0,1.0299098E0,9.578216E-1,1.5664804E-1,3.4129543E0,2.1602583E0,0E0,0E0,2.4821181E0,7.031399E0,3.3879428E0,3.407067E0,3.1609747E0,5.691986E0,2.8201773E0,3.297306E0,2.117567E0,2.2603943E0,1.8627176E0,1.9149513E0,0E0,0E0,0E0,0E0,0E0,0E0,0E0,0E0,0E0,0E0,0E0,0E0,0E0,0E0,0E0,0E0],"parents":[2147483647,0,0,2,2,3,3,4,4,5,5,6,6,9,9,10,10,11,11,12,12,13,13,14,14,15,15,16,16,17,17,18,18,19,19,20,20],"right_children":[2,-1,4,6,8,10,12,-1,-1,14,16,18,20,22,24,26,28,30,32,34,36,-1,-1,-1,-1,-1,-1,-1,-1,-1,-1,-1,-1,-1,-1,-1,-1],"split_conditions":[-1.6736465E0,2.0990616E-1,1.0017485E1,-2.1879227E-1,-7.698672E-1,-3.648011E-1,1.9664046E0,2.7569322E-2,2.0005308E-1,-4.6651512E-1,-4.134379E-1,-8.229864E-2,-5.1037705E-1,1.2394484E0,1.2952542E-1,-9.3608254E-1,1.5057136E0,-1.180626E-1,-7.7972883E-1,-7.461933E-2,-1.2907441E0,-4.153598E-2,1.9994988E-1,1.0478399E-1,-8.266554E-2,-9.371965E-2,1.2109215E-1,-1.8669319E-1,1.8919916E-1,7.943997E-2,2.945225E-1,-1.1989444E-1,2.4004683E-2,-6.414947E-2,-3.453632E-1,2.2842038E-1,-2.4520226E-2],"split_indices":[0,0,40,2,6,2,9,0,0,2,0,2,0,6,7,5,6,2,6,6,5,0,0,0,0,0,0,0,0,0,0,0,0,0,0,0,0],"split_type":[0,0,0,0,0,0,0,0,0,0,0,0,0,0,0,0,0,0,0,0,0,0,0,0,0,0,0,0,0,0,0,0,0,0,0,0,0],"sum_hessian":[3.5560553E2,1.2831924E0,3.5432233E2,3.5170786E2,2.6144931E0,2.059383E2,1.4576955E2,1.027286E0,1.587207E0,1.5042296E2,5.551534E1,1.1866287E2,2.7106672E1,8.212612E1,6.829684E1,2.2617908E1,3.289743E1,2.432411E1,9.433876E1,8.600649E0,1.8506023E1,7.791231E1,4.2138147E0,4.8487137E1,1.9809704E1,7.454818E0,1.5163091E1,3.1436682E1,1.4607487E0,1.9603386E1,4.720724E0,1.0107934E1,8.423083E1,5.0598717E0,3.5407772E0,2.1953456E0,1.6310677E1],"tree_param":{"num_deleted":"0","num_feature":"41","num_nodes":"37","size_leaf_vector":"1"}},{"base_weights":[4.7042123E-3,-3.2493967E-1,1.2987168E-2,-4.3094692E-1,3.4219086E-2,6.869287E-3,2.1851243E-1,-5.747947E-1,2.154789E-2,6.4456515E-2,-3.9782807E-2,-1.7940223E-2,-6.7906725E-1,-3.4659055E-1,1.2554207E-1,-1.1168161E-2,-9.108499E-1,-2.3224194E-1,-5.6863118E-2,-5.9997714E-1,7.2640395E-1,1.855606E-1,-2.6866573E-1,1.3192159E-1,-1.1427752E-1,-3.6735952E-1,-2.9057873E-2,-2.361612E-1,4.1125886E-2,3.3728845E-2,2.6707622E-1,7.457598E-2,-8.912005E-2,3.1490287E-1,-1.4654271E-1,-4.7876354E-4,9.686263E-2,-6.7819245E-2,3.899424E-2],"categories":[],"categories_nodes":[],"categories_segments":[],